{"learner":{"attributes":{"scikit_learn":"{\"_estimator_type\": \"classifier\"}"},"feature_names":["AgeCategory","SleepTime","KidneyDisease","Stroke","GenHealth"],"feature_types":["int","float","int","int","int"],"gradient_booster":{"model":{"gbtree_model_param":{"num_parallel_tree":"1","num_trees":"100"},"iteration_indptr":[0,1,2,3,4,5,6,7,8,9,10,11,12,13,14,15,16,17,18,19,20,21,22,23,24,25,26,27,28,29,30,31,32,33,34,35,36,37,38,39,40,41,42,43,44,45,46,47,48,49,50,51,52,53,54,55,56,57,58,59,60,61,62,63,64,65,66,67,68,69,70,71,72,73,74,75,76,77,78,79,80,81,82,83,84,85,86,87,88,89,90,91,92,93,94,95,96,97,98,99,100],"tree_info":[0,0,0,0,0,0,0,0,0,0,0,0,0,0,0,0,0,0,0,0,0,0,0,0,0,0,0,0,0,0,0,0,0,0,0,0,0,0,0,0,0,0,0,0,0,0,0,0,0,0,0,0,0,0,0,0,0,0,0,0,0,0,0,0,0,0,0,0,0,0,0,0,0,0,0,0,0,0,0,0,0,0,0,0,0,0,0,0,0,0,0,0,0,0,0,0,0,0,0,0],"trees":[{"base_weights":[5.5467165E-1,9.544924E-1,6.9566794E-2,9.88763E-1,-1.0277425E0,1.8513213E-1,-1.6486956E0,1.0836728E0,7.771167E-1,-1.2133023E0,-1.2347297E-1,2.564501E-1,-1.0422947E0,-1.9446014E0,-4.156032E-1,1.1248306E0,1.0083005E0,8.095132E-1,-3.6491212E-1,-8.7314814E-1,-2.4583392E0,-4.1546926E-1,-2.6501918E-2,8.676196E-1,1.3375232E-1,-1.2742598E0,-4.0418055E-2,-1.2844715E0,-2.5552628E0,-5.457733E-1,-3.6505234E-1,9.4176453E-1,1.1314528E0,1.0199252E0,3.4666044E-1,1.0825528E0,7.310369E-1,-5.741185E-1,6.689427E-1,-5.2465355E-1,-1.3080096E0,-5.1562446E-1,-7.9073876E-1,1.4454496E-1,-3.3426023E-1,9.4744426E-1,6.243494E-1,-2.1009327E-1,5.810958E-1,-6.8721724E-1,-1.8276598E0,2.6905587E-1,-4.4085026E-1,-1.1726661E0,-2.2759166E0,-2.344114E0,-3.4186108E0,-3.0162868E-1,-3.5008222E-1,3.022227E-1,2.360375E-1,3.4013242E-1,2.4640808E-1,2.3863946E-1,3.1402946E-1,4.898911E-2,3.1654975E-1,3.2538673E-1,1.0732074E-1,1.523824E-1,2.947038E-1,5.060971E-2,-3.304546E-1,-5.1186588E-2,2.1575002E-1,-1.1642436E-1,-7.195682E-1,-3.192221E-1,-4.7210386E-1,-6.191003E-1,9.3222395E-2,-1.4640877E-1,6.39361E-2,-4.9209848E-2,-1.5318349E-1,2.9399407E-1,2.592283E-1,2.1747187E-1,1.5552178E-1,2.1682302E-2,-2.3270737E-1,2.3428285E-1,1.1675414E-1,-1.1441911E-1,-3.2506222E-1,-4.692366E-1,-6.978768E-1,1.5467629E-1,5.590069E-2,-1.5157065E-1,-8.384569E-3,-1.7187725E-1,-3.7986028E-1,-7.4426883E-1,-3.19095E-1,-6.4481306E-1,-8.186916E-1,-8.484229E-1,-1.1813508E0,-5.2651376E-2,-1.8597382E-1],"categories":[],"categories_nodes":[],"categories_segments":[],"categories_sizes":[],"default_left":[0,0,0,0,0,0,0,0,0,0,0,0,0,0,0,0,0,0,0,0,0,0,0,0,0,0,0,0,0,0,0,0,0,0,0,0,0,0,0,0,0,0,0,0,0,0,0,0,0,0,0,0,0,0,0,0,0,0,0,0,0,0,0,0,0,0,0,0,0,0,0,0,0,0,0,0,0,0,0,0,0,0,0,0,0,0,0,0,0,0,0,0,0,0,0,0,0,0,0,0,0,0,0,0,0,0,0,0,0,0,0],"id":0,"left_children":[1,3,5,7,9,11,13,15,17,19,21,23,25,27,29,31,33,35,37,39,41,-1,43,45,47,49,51,53,55,-1,57,59,61,63,65,67,69,71,73,75,77,79,-1,81,83,85,87,89,91,93,95,97,99,101,103,105,107,109,-1,-1,-1,-1,-1,-1,-1,-1,-1,-1,-1,-1,-1,-1,-1,-1,-1,-1,-1,-1,-1,-1,-1,-1,-1,-1,-1,-1,-1,-1,-1,-1,-1,-1,-1,-1,-1,-1,-1,-1,-1,-1,-1,-1,-1,-1,-1,-1,-1,-1,-1,-1,-1],"loss_changes":[6.6644346E3,1.2806016E3,3.0832969E3,3.7110742E2,5.3647614E1,1.2737926E3,3.562329E2,3.851465E1,2.125249E2,1.104675E2,6.7769003E0,1.0310023E3,1.8565723E2,3.147256E2,1.2863052E1,8.946289E0,3.4441406E1,1.1873682E2,3.4757668E1,3.1199371E1,1.8122223E1,0E0,2.8248944E0,4.4048218E1,1.7617076E3,2.0952771E2,1.886368E1,3.9575012E1,6.650537E1,0E0,9.070484E0,2.2010193E0,4.8046875E0,2.5948242E1,1.0172249E1,1.4771729E0,2.426062E2,5.217847E1,1.2699966E0,2.9388187E1,4.3480835E0,8.282148E0,0E0,1.6049633E0,4.9095798E-1,3.8416748E0,5.705887E0,1.0343214E3,1.9059912E2,3.7941147E1,4.0167236E1,1.6565819E0,1.7489872E0,1.860196E1,6.693924E0,1.8989136E1,1.2825134E1,6.837472E0,0E0,0E0,0E0,0E0,0E0,0E0,0E0,0E0,0E0,0E0,0E0,0E0,0E0,0E0,0E0,0E0,0E0,0E0,0E0,0E0,0E0,0E0,0E0,0E0,0E0,0E0,0E0,0E0,0E0,0E0,0E0,0E0,0E0,0E0,0E0,0E0,0E0,0E0,0E0,0E0,0E0,0E0,0E0,0E0,0E0,0E0,0E0,0E0,0E0,0E0,0E0,0E0,0E0],"parents":[2147483647,0,0,1,1,2,2,3,3,4,4,5,5,6,6,7,7,8,8,9,9,10,10,11,11,12,12,13,13,14,14,15,15,16,16,17,17,18,18,19,19,20,20,22,22,23,23,24,24,25,25,26,26,27,27,28,28,30,30,31,31,32,32,33,33,34,34,35,35,36,36,37,37,38,38,39,39,40,40,41,41,43,43,44,44,45,45,46,46,47,47,48,48,49,49,50,50,51,51,52,52,53,53,54,54,55,55,56,56,57,57],"right_children":[2,4,6,8,10,12,14,16,18,20,22,24,26,28,30,32,34,36,38,40,42,-1,44,46,48,50,52,54,56,-1,58,60,62,64,66,68,70,72,74,76,78,80,-1,82,84,86,88,90,92,94,96,98,100,102,104,106,108,110,-1,-1,-1,-1,-1,-1,-1,-1,-1,-1,-1,-1,-1,-1,-1,-1,-1,-1,-1,-1,-1,-1,-1,-1,-1,-1,-1,-1,-1,-1,-1,-1,-1,-1,-1,-1,-1,-1,-1,-1,-1,-1,-1,-1,-1,-1,-1,-1,-1,-1,-1,-1,-1],"split_conditions":[8E0,1E0,1E0,6E0,4E0,1E0,4E0,4E0,1E0,3E0,-1.4960896E0,1E0,4E0,2E0,-1.4960896E0,-1.4960896E0,1E0,1E0,4E0,2E0,4E0,-4.1546926E-1,7E0,1.1E1,4E0,2E0,1.1E1,1E0,1E0,-5.457733E-1,1E0,3E0,1E0,-7.795733E-1,4E0,3.519524E0,4E0,2E0,-1.4960896E0,1E0,-6.305709E-2,-1.4960896E0,-7.9073876E-1,1E0,6.5345913E-1,1E1,1.2E1,2E0,1E1,1.1E1,3E0,9E0,1.3699753E0,1E0,1.3699753E0,3E0,3E0,1.2E1,-3.5008222E-1,3.022227E-1,2.360375E-1,3.4013242E-1,2.4640808E-1,2.3863946E-1,3.1402946E-1,4.898911E-2,3.1654975E-1,3.2538673E-1,1.0732074E-1,1.523824E-1,2.947038E-1,5.060971E-2,-3.304546E-1,-5.1186588E-2,2.1575002E-1,-1.1642436E-1,-7.195682E-1,-3.192221E-1,-4.7210386E-1,-6.191003E-1,9.3222395E-2,-1.4640877E-1,6.39361E-2,-4.9209848E-2,-1.5318349E-1,2.9399407E-1,2.592283E-1,2.1747187E-1,1.5552178E-1,2.1682302E-2,-2.3270737E-1,2.3428285E-1,1.1675414E-1,-1.1441911E-1,-3.2506222E-1,-4.692366E-1,-6.978768E-1,1.5467629E-1,5.590069E-2,-1.5157065E-1,-8.384569E-3,-1.7187725E-1,-3.7986028E-1,-7.4426883E-1,-3.19095E-1,-6.4481306E-1,-8.186916E-1,-8.484229E-1,-1.1813508E0,-5.2651376E-2,-1.8597382E-1],"split_indices":[0,3,3,0,4,2,4,0,2,4,1,4,4,4,1,1,2,4,4,4,0,0,0,0,4,4,0,2,2,0,2,4,2,1,4,1,4,4,1,2,1,1,0,0,1,0,0,4,0,0,4,0,1,4,1,4,4,0,0,0,0,0,0,0,0,0,0,0,0,0,0,0,0,0,0,0,0,0,0,0,0,0,0,0,0,0,0,0,0,0,0,0,0,0,0,0,0,0,0,0,0,0,0,0,0,0,0,0,0,0,0],"split_type":[0,0,0,0,0,0,0,0,0,0,0,0,0,0,0,0,0,0,0,0,0,0,0,0,0,0,0,0,0,0,0,0,0,0,0,0,0,0,0,0,0,0,0,0,0,0,0,0,0,0,0,0,0,0,0,0,0,0,0,0,0,0,0,0,0,0,0,0,0,0,0,0,0,0,0,0,0,0,0,0,0,0,0,0,0,0,0,0,0,0,0,0,0,0,0,0,0,0,0,0,0,0,0,0,0,0,0,0,0,0,0],"sum_hessian":[3.436006E4,1.883521E4,1.5524847E4,1.85156E4,3.1961218E2,1.4547327E4,9.775187E2,1.2780321E4,5.7352783E3,2.6490985E2,5.470234E1,1.3749238E4,7.9808966E2,7.8787494E2,1.8964374E2,8.257365E3,4.522956E3,5.5773535E3,1.5792444E2,2.094011E2,5.5508762E1,2.9568832E0,5.1745457E1,2.297767E3,1.1451471E4,6.4782623E2,1.5026343E2,3.800939E2,4.0778107E2,5.376151E0,1.8426758E2,2.9326904E2,7.964096E3,4.4443296E3,7.862621E1,1.2422942E3,4.3350596E3,1.317157E2,2.6208736E1,1.174689E2,9.193218E1,4.97294E0,5.053582E1,3.3600945E1,1.814451E1,1.727895E3,5.69872E2,6.4750366E3,4.9764346E3,3.1544568E2,3.3238055E2,8.494319E1,6.532024E1,3.4353607E2,3.6557827E1,3.306333E2,7.7147766E1,1.7203683E2,1.2230744E1,2.0214328E2,9.112576E1,7.90227E3,6.1825737E1,4.7793985E2,3.96639E3,6.3438583E1,1.5187627E1,1.2382621E3,4.0321136E0,2.298036E3,2.0370237E3,5.4971146E1,7.674456E1,1.3440378E0,2.4864698E1,1.1061431E2,6.854593E0,5.053582E1,4.1396366E1,1.2096341E0,3.763306E0,2.6880755E0,3.0912868E1,1.0214687E1,7.929823E0,1.2350364E3,4.9285867E2,2.8937134E2,2.805007E2,4.3194688E3,2.1555679E3,2.4363374E3,2.540097E3,1.7916023E2,1.3628543E2,2.201534E2,1.1222716E2,2.0026163E1,6.491702E1,5.6315186E1,9.0050535E0,4.731013E1,2.9622592E2,3.0375254E1,6.182574E0,2.239167E2,1.067166E2,3.91115E1,3.803627E1,1.24323494E2,4.771334E1],"tree_param":{"num_deleted":"0","num_feature":"5","num_nodes":"111","size_leaf_vector":"1"}},{"base_weights":[4.62859E-1,7.764458E-1,-3.3659708E-2,8.2185435E-1,-5.990131E-1,6.531229E-1,-1.3085434E-1,1.002848E0,5.9623545E-1,-5.0049686E-1,-1.2380497E0,6.894352E-1,-4.0852875E-1,-3.895839E-1,3.3699417E-1,1.0522336E0,9.147971E-1,9.7103345E-1,5.0993633E-1,-6.394857E-2,-5.830481E-1,-6.9512933E-1,-1.362709E0,7.996239E-1,4.9539697E-1,-1.8627381E-2,-3.2285488E-1,-1.5616669E-1,-7.1853256E-1,4.8181087E-1,1.23672694E-1,8.4012E-1,1.0602577E0,6.448686E-1,9.4960296E-1,9.721389E-1,1.8846211E-3,2.8605488E-1,8.3343387E-1,1.7434898E-1,-2.2682863E-1,-6.610206E-1,-8.48823E-2,-2.4046902E-1,-1.2419174E0,-1.5319818E0,-1.0842558E0,8.055396E-1,4.472076E-1,5.181561E-1,1.5959473E-2,5.5296347E-2,-3.052511E-1,6.183902E-2,-4.319075E-1,-5.71742E-1,-1.1116558E0,5.043537E-1,-1.3223249E-1,1.6113296E-1,-3.8591644E-1,2.8384048E-1,2.1640597E-1,3.1892177E-1,2.1335135E-1,2.046993E-1,-1.080528E-1,2.6623294E-1,3.1568515E-1,2.3991597E-1,2.9431438E-1,1.6063093E-1,-4.286162E-2,2.832715E-1,2.3666094E-1,6.827357E-2,-2.2063352E-1,-1.105097E-1,1.2411784E-2,-1.6520081E-1,-2.9585359E-1,-6.705079E-3,-2.617447E-1,-4.238151E-1,2.3825957E-2,-2.6096532E-2,-4.5429108E-1,-3.7546647E-1,-5.2415013E-1,-8.8585004E-2,-3.8397443E-1,2.5416976E-1,2.2638594E-1,3.6652982E-2,1.9012174E-1,1.8374293E-1,1.2574714E-1,-7.3597305E-2,2.1385099E-1,3.6062177E-2,-7.975435E-2,3.353826E-2,-1.5866855E-1,-1.1132489E-1,-2.7261737E-1,-1.4624415E-1,-3.0658856E-1,-2.6316848E-1,-3.5823688E-1,1.5460838E-1,4.122756E-2,-2.0121437E-1,-3.0281743E-2,5.5489615E-2,-8.375108E-2,-2.8846085E-1,-6.826173E-2],"categories":[],"categories_nodes":[],"categories_segments":[],"categories_sizes":[],"default_left":[0,0,0,0,0,0,0,0,0,0,0,0,0,0,0,0,0,0,0,0,0,0,0,0,0,0,0,0,0,0,0,0,0,0,0,0,0,0,0,0,0,0,0,0,0,0,0,0,0,0,0,0,0,0,0,0,0,0,0,0,0,0,0,0,0,0,0,0,0,0,0,0,0,0,0,0,0,0,0,0,0,0,0,0,0,0,0,0,0,0,0,0,0,0,0,0,0,0,0,0,0,0,0,0,0,0,0,0,0,0,0,0,0,0,0,0,0],"id":1,"left_children":[1,3,5,7,9,11,13,15,17,19,21,23,25,27,29,31,33,35,37,39,41,43,45,47,49,51,-1,53,55,57,59,61,63,65,67,69,-1,71,73,75,77,79,81,83,85,87,89,91,93,95,97,99,-1,101,103,105,107,109,111,113,115,-1,-1,-1,-1,-1,-1,-1,-1,-1,-1,-1,-1,-1,-1,-1,-1,-1,-1,-1,-1,-1,-1,-1,-1,-1,-1,-1,-1,-1,-1,-1,-1,-1,-1,-1,-1,-1,-1,-1,-1,-1,-1,-1,-1,-1,-1,-1,-1,-1,-1,-1,-1,-1,-1,-1,-1],"loss_changes":[4.784431E3,1.1767822E3,7.941342E2,7.4391406E2,3.7308746E1,5.7141968E1,1.261632E3,4.302246E1,2.620786E2,1.8834534E1,4.453171E0,3.0104187E1,1.2841701E1,5.151758E2,1.1460153E2,1.0127441E1,3.3607666E1,1.6130371E0,4.778197E2,3.315491E0,1.704535E1,3.9130325E0,1.348587E0,1.5332031E0,5.658203E0,2.4346373E0,0E0,2.360792E2,1.6009045E2,3.0664185E1,2.8737679E1,2.3491821E0,5.370117E0,1.6026596E1,1.9644775E1,1.5449219E0,0E0,4.1751395E2,1.2583618E1,1.8542484E0,1.9348423E0,1.3111206E1,2.9715507E0,4.045857E0,2.2123556E0,6.352234E-2,3.8768578E0,1.2543335E0,9.679191E-1,4.3723145E0,4.647987E0,6.768937E-1,0E0,6.4800575E1,4.9950928E1,7.6513855E1,1.357135E1,8.541809E0,1.2646757E0,1.4742664E1,9.185691E0,0E0,0E0,0E0,0E0,0E0,0E0,0E0,0E0,0E0,0E0,0E0,0E0,0E0,0E0,0E0,0E0,0E0,0E0,0E0,0E0,0E0,0E0,0E0,0E0,0E0,0E0,0E0,0E0,0E0,0E0,0E0,0E0,0E0,0E0,0E0,0E0,0E0,0E0,0E0,0E0,0E0,0E0,0E0,0E0,0E0,0E0,0E0,0E0,0E0,0E0,0E0,0E0,0E0,0E0,0E0,0E0],"parents":[2147483647,0,0,1,1,2,2,3,3,4,4,5,5,6,6,7,7,8,8,9,9,10,10,11,11,12,12,13,13,14,14,15,15,16,16,17,17,18,18,19,19,20,20,21,21,22,22,23,23,24,24,25,25,27,27,28,28,29,29,30,30,31,31,32,32,33,33,34,34,35,35,37,37,38,38,39,39,40,40,41,41,42,42,43,43,44,44,45,45,46,46,47,47,48,48,49,49,50,50,51,51,53,53,54,54,55,55,56,56,57,57,58,58,59,59,60,60],"right_children":[2,4,6,8,10,12,14,16,18,20,22,24,26,28,30,32,34,36,38,40,42,44,46,48,50,52,-1,54,56,58,60,62,64,66,68,70,-1,72,74,76,78,80,82,84,86,88,90,92,94,96,98,100,-1,102,104,106,108,110,112,114,116,-1,-1,-1,-1,-1,-1,-1,-1,-1,-1,-1,-1,-1,-1,-1,-1,-1,-1,-1,-1,-1,-1,-1,-1,-1,-1,-1,-1,-1,-1,-1,-1,-1,-1,-1,-1,-1,-1,-1,-1,-1,-1,-1,-1,-1,-1,-1,-1,-1,-1,-1,-1,-1,-1,-1,-1],"split_conditions":[9E0,1E0,1E0,6E0,1E0,1E0,4E0,4E0,1E0,5E0,6E0,1.1E1,1.2E1,2E0,1.1E1,-1.4960896E0,-7.795733E-1,4.23604E0,4E0,2E0,4E0,3E0,6.5345913E-1,1E0,2.0864916E0,1E0,-3.2285488E-1,1.1E1,3E0,1E0,1E0,2E0,1E0,1E0,4E0,-7.795733E-1,1.8846211E-3,2E0,7E0,2.0864916E0,4E0,3E0,2.0864916E0,3E0,4E0,8E0,2E0,1E1,1E1,1.2E1,3.519524E0,1.3699753E0,-3.052511E-1,1E0,1E0,1E0,1E1,1E0,-1.4960896E0,1E0,-6.305709E-2,2.8384048E-1,2.1640597E-1,3.1892177E-1,2.1335135E-1,2.046993E-1,-1.080528E-1,2.6623294E-1,3.1568515E-1,2.3991597E-1,2.9431438E-1,1.6063093E-1,-4.286162E-2,2.832715E-1,2.3666094E-1,6.827357E-2,-2.2063352E-1,-1.105097E-1,1.2411784E-2,-1.6520081E-1,-2.9585359E-1,-6.705079E-3,-2.617447E-1,-4.238151E-1,2.3825957E-2,-2.6096532E-2,-4.5429108E-1,-3.7546647E-1,-5.2415013E-1,-8.8585004E-2,-3.8397443E-1,2.5416976E-1,2.2638594E-1,3.6652982E-2,1.9012174E-1,1.8374293E-1,1.2574714E-1,-7.3597305E-2,2.1385099E-1,3.6062177E-2,-7.975435E-2,3.353826E-2,-1.5866855E-1,-1.1132489E-1,-2.7261737E-1,-1.4624415E-1,-3.0658856E-1,-2.6316848E-1,-3.5823688E-1,1.5460838E-1,4.122756E-2,-2.0121437E-1,-3.0281743E-2,5.5489615E-2,-8.375108E-2,-2.8846085E-1,-6.826173E-2],"split_indices":[0,3,4,0,2,3,4,0,4,0,0,0,0,4,0,1,1,1,4,4,4,4,1,2,1,2,0,0,4,3,3,4,2,2,4,1,0,4,0,1,4,4,1,0,0,0,4,0,0,0,1,1,0,3,3,3,0,2,1,2,1,0,0,0,0,0,0,0,0,0,0,0,0,0,0,0,0,0,0,0,0,0,0,0,0,0,0,0,0,0,0,0,0,0,0,0,0,0,0,0,0,0,0,0,0,0,0,0,0,0,0,0,0,0,0,0,0],"split_type":[0,0,0,0,0,0,0,0,0,0,0,0,0,0,0,0,0,0,0,0,0,0,0,0,0,0,0,0,0,0,0,0,0,0,0,0,0,0,0,0,0,0,0,0,0,0,0,0,0,0,0,0,0,0,0,0,0,0,0,0,0,0,0,0,0,0,0,0,0,0,0,0,0,0,0,0,0,0,0,0,0,0,0,0,0,0,0,0,0,0,0,0,0,0,0,0,0,0,0,0,0,0,0,0,0,0,0,0,0,0,0,0,0,0,0,0,0],"sum_hessian":[3.0727012E4,1.8832432E4,1.189458E4,1.8230969E4,6.014635E2,1.4739373E3,1.0420643E4,1.0113987E4,8.116981E3,5.2267E2,7.879351E1,1.4255297E3,4.8407597E1,6.7100293E3,3.710613E3,6.472669E3,3.641318E3,1.517258E3,6.599723E3,8.340126E1,4.392687E2,1.5941375E1,6.285214E1,9.0722296E2,5.1830676E2,3.1209532E1,1.7198063E1,3.9258079E3,2.7842217E3,2.2094404E3,1.5011726E3,2.3978152E2,6.232887E3,4.181306E2,3.2231875E3,1.5155139E3,1.7441835E0,3.901508E3,2.698215E3,3.383273E1,4.956853E1,3.79537E2,5.973172E1,9.490065E0,6.4513097E0,3.628973E1,2.6562408E1,8.909811E2,1.6241833E1,4.947404E2,2.3566364E1,2.9938517E1,1.2710149E0,2.1928647E3,1.7329431E3,2.029041E3,7.551807E2,2.1313718E3,7.806855E1,1.3990139E3,1.0215873E2,1.2301149E2,1.1677004E2,6.181001E3,5.1886127E1,4.0341467E2,1.4715934E1,2.0137596E3,1.2094279E3,7.8919525E1,1.4365944E3,2.4669536E3,1.4345546E3,7.6813367E2,1.9300813E3,3.267109E1,1.1616387E0,3.2201477E1,1.7367054E1,2.8537927E2,9.415772E1,5.6290848E1,3.4408722E0,1.302118E0,8.187947E0,1.4829397E0,4.96837E0,1.8715748E1,1.7573982E1,5.7768965E0,2.0785511E1,4.8127597E2,4.0970514E2,6.525736E0,9.716096E0,2.5070097E2,2.4403941E2,1.761125E1,5.955113E0,2.5425173E1,4.5133443E0,2.0226324E3,1.7023225E2,1.5384686E3,1.9447446E2,1.7109152E3,3.181259E2,1.9955293E2,5.556278E2,2.068902E3,6.246979E1,3.1654673E0,7.490308E1,1.3277275E3,7.1286354E1,2.0948956E1,8.120978E1],"tree_param":{"num_deleted":"0","num_feature":"5","num_nodes":"117","size_leaf_vector":"1"}},{"base_weights":[3.8122824E-1,8.496132E-1,1.0796773E-1,8.7985533E-1,-3.2690647E-1,3.1713232E-1,-1.12881325E-1,9.670596E-1,7.13852E-1,-8.0393344E-1,-2.3285396E-1,3.7612304E-1,-4.173042E-1,4.662438E-1,-1.7836513E-1,6.329559E-1,9.8111933E-1,7.395148E-1,-1.2435251E-1,-4.05352E-1,-1.0223627E0,-1.0330533E-1,-4.3493187E-1,8.2891387E-1,2.9719248E-1,-3.6256817E-1,-7.3223877E-1,5.0667053E-1,-2.9958388E-1,-3.4665766E-1,1.7760234E-1,7.4387604E-1,2.9826686E-1,9.8567605E-1,5.5558616E-1,9.7062904E-1,6.72477E-1,-2.58753E-1,2.2380011E-1,-2.63589E-2,-9.945716E-1,-5.697862E-1,-7.246814E-1,2.151489E-1,-2.0184506E-1,4.68811E-2,-5.0148845E-1,9.1708803E-1,7.8401095E-1,1.1871572E-1,6.074638E-1,-4.1349506E-1,-2.5931513E-2,-8.771714E-1,-5.0112915E-1,5.900257E-1,3.038337E-1,1.5295735E-2,-6.249091E-1,-2.0790607E-1,-5.2654344E-1,2.5604504E-1,-3.618596E-3,2.4872987E-1,1.6851085E-1,1.7528525E-1,1.3822969E-2,3.053869E-1,2.8255045E-1,2.3317485E-1,9.627871E-2,2.9191747E-1,-1.058394E-1,1.4682281E-1,2.7252156E-1,2.2030523E-2,-3.7407276E-1,1.9467877E-1,-9.749502E-2,-5.9753984E-1,-8.923915E-2,-1.0672968E-1,-2.643738E-1,1.6756456E-2,1.3143852E-1,1.0210436E-1,-7.178302E-2,-1.6652356E-1,8.7020494E-2,-1.794553E-1,-1.3318669E-2,2.775074E-1,4.2635063E-3,-9.214623E-2,2.3635693E-1,6.1185595E-2,-1.7354245E-1,2.0597206E-1,1.4257546E-1,-7.427502E-2,-1.5861821E-1,-2.2141261E-1,1.5611158E-2,-2.4494731E-1,-4.358347E-1,-4.928708E-2,-1.7879595E-1,1.9477491E-1,1.4843541E-1,9.900348E-2,-1.0922354E-1,2.9343067E-2,-8.319685E-2,-2.2657989E-1,-1.4335278E-1,-5.1656112E-2,-1.6657962E-1,-1.3850075E-1,-2.052526E-1,8.406067E-2,-5.211738E-2,7.6130917E-3,-9.0262584E-2],"categories":[],"categories_nodes":[],"categories_segments":[],"categories_sizes":[],"default_left":[0,0,0,0,0,0,0,0,0,0,0,0,0,0,0,0,0,0,0,0,0,0,0,0,0,0,0,0,0,0,0,0,0,0,0,0,0,0,0,0,0,0,0,0,0,0,0,0,0,0,0,0,0,0,0,0,0,0,0,0,0,0,0,0,0,0,0,0,0,0,0,0,0,0,0,0,0,0,0,0,0,0,0,0,0,0,0,0,0,0,0,0,0,0,0,0,0,0,0,0,0,0,0,0,0,0,0,0,0,0,0,0,0,0,0,0,0,0,0,0,0,0,0],"id":2,"left_children":[1,3,5,7,9,11,13,15,17,19,21,23,25,27,29,31,33,35,37,39,41,43,45,47,49,51,53,55,57,59,61,63,65,67,69,71,73,75,-1,77,79,-1,81,83,85,87,89,91,93,95,97,99,101,103,105,107,109,111,113,115,117,119,121,-1,-1,-1,-1,-1,-1,-1,-1,-1,-1,-1,-1,-1,-1,-1,-1,-1,-1,-1,-1,-1,-1,-1,-1,-1,-1,-1,-1,-1,-1,-1,-1,-1,-1,-1,-1,-1,-1,-1,-1,-1,-1,-1,-1,-1,-1,-1,-1,-1,-1,-1,-1,-1,-1,-1,-1,-1,-1,-1,-1],"loss_changes":[3.5315046E3,3.6201123E2,8.050619E2,1.4279541E2,1.1276133E1,3.8794135E2,3.2157965E2,2.9890625E1,7.360364E1,3.2136078E0,5.5791397E0,2.9587512E2,1.1214241E1,2.6823273E1,4.5637427E2,9.620346E0,1.1535156E1,5.0724365E1,1.2168761E1,3.6381469E0,5.4793034E0,4.1925507E0,2.7047577E0,4.1484375E0,3.9073267E2,9.749641E0,2.8303642E0,1.3662216E1,4.498862E0,1.28987E2,3.4769257E1,2.6154099E0,4.853606E0,7.7646484E0,3.3037453E0,2.7329712E0,1.1071655E2,2.94459E1,0E0,2.4318132E0,3.8538241E0,0E0,9.123497E-1,1.1025199E0,2.141222E0,1.7804548E0,3.2242432E0,2.9171448E0,3.6889038E0,2.6642917E2,2.6625854E1,9.32206E0,4.2512865E0,8.6289215E-1,1.1788206E0,2.9455261E0,4.325197E0,5.8840257E-1,5.2788734E-2,3.6154045E1,2.2709778E1,1.7770378E1,6.384494E0,0E0,0E0,0E0,0E0,0E0,0E0,0E0,0E0,0E0,0E0,0E0,0E0,0E0,0E0,0E0,0E0,0E0,0E0,0E0,0E0,0E0,0E0,0E0,0E0,0E0,0E0,0E0,0E0,0E0,0E0,0E0,0E0,0E0,0E0,0E0,0E0,0E0,0E0,0E0,0E0,0E0,0E0,0E0,0E0,0E0,0E0,0E0,0E0,0E0,0E0,0E0,0E0,0E0,0E0,0E0,0E0,0E0,0E0,0E0,0E0],"parents":[2147483647,0,0,1,1,2,2,3,3,4,4,5,5,6,6,7,7,8,8,9,9,10,10,11,11,12,12,13,13,14,14,15,15,16,16,17,17,18,18,19,19,20,20,21,21,22,22,23,23,24,24,25,25,26,26,27,27,28,28,29,29,30,30,31,31,32,32,33,33,34,34,35,35,36,36,37,37,39,39,40,40,42,42,43,43,44,44,45,45,46,46,47,47,48,48,49,49,50,50,51,51,52,52,53,53,54,54,55,55,56,56,57,57,58,58,59,59,60,60,61,61,62,62],"right_children":[2,4,6,8,10,12,14,16,18,20,22,24,26,28,30,32,34,36,38,40,42,44,46,48,50,52,54,56,58,60,62,64,66,68,70,72,74,76,-1,78,80,-1,82,84,86,88,90,92,94,96,98,100,102,104,106,108,110,112,114,116,118,120,122,-1,-1,-1,-1,-1,-1,-1,-1,-1,-1,-1,-1,-1,-1,-1,-1,-1,-1,-1,-1,-1,-1,-1,-1,-1,-1,-1,-1,-1,-1,-1,-1,-1,-1,-1,-1,-1,-1,-1,-1,-1,-1,-1,-1,-1,-1,-1,-1,-1,-1,-1,-1,-1,-1,-1,-1,-1,-1,-1,-1],"split_conditions":[7E0,1E0,1E1,5E0,-1.4960896E0,1E0,1E0,-1.4960896E0,1E0,5E0,6.5345913E-1,1E0,1E0,1E0,4E0,4E0,1E0,1E0,4E0,3E0,2E0,4E0,1E0,8E0,4E0,4E0,9E0,1.2E1,1.2E1,2E0,1.2E1,3E0,2E0,3E0,2E0,4.9525566E0,4E0,3E0,2.2380011E-1,-2.2126057E0,-2.2126057E0,-5.697862E-1,3E0,3E0,1E0,4E0,4E0,1E0,-2.929122E0,3E0,9E0,2E0,-7.795733E-1,2.8030078E0,2E0,1.1E1,1E0,1.3699753E0,6.5345913E-1,1E0,3E0,1E0,1E0,2.4872987E-1,1.6851085E-1,1.7528525E-1,1.3822969E-2,3.053869E-1,2.8255045E-1,2.3317485E-1,9.627871E-2,2.9191747E-1,-1.058394E-1,1.4682281E-1,2.7252156E-1,2.2030523E-2,-3.7407276E-1,1.9467877E-1,-9.749502E-2,-5.9753984E-1,-8.923915E-2,-1.0672968E-1,-2.643738E-1,1.6756456E-2,1.3143852E-1,1.0210436E-1,-7.178302E-2,-1.6652356E-1,8.7020494E-2,-1.794553E-1,-1.3318669E-2,2.775074E-1,4.2635063E-3,-9.214623E-2,2.3635693E-1,6.1185595E-2,-1.7354245E-1,2.0597206E-1,1.4257546E-1,-7.427502E-2,-1.5861821E-1,-2.2141261E-1,1.5611158E-2,-2.4494731E-1,-4.358347E-1,-4.928708E-2,-1.7879595E-1,1.9477491E-1,1.4843541E-1,9.900348E-2,-1.0922354E-1,2.9343067E-2,-8.319685E-2,-2.2657989E-1,-1.4335278E-1,-5.1656112E-2,-1.6657962E-1,-1.3850075E-1,-2.052526E-1,8.406067E-2,-5.211738E-2,7.6130917E-3,-9.0262584E-2],"split_indices":[0,3,0,0,1,3,4,1,2,0,1,4,2,3,4,0,2,4,4,4,4,0,4,0,4,4,0,0,0,4,0,4,4,0,4,1,4,4,0,1,1,0,4,0,4,0,4,2,1,4,0,4,1,1,4,0,2,1,1,2,4,3,3,0,0,0,0,0,0,0,0,0,0,0,0,0,0,0,0,0,0,0,0,0,0,0,0,0,0,0,0,0,0,0,0,0,0,0,0,0,0,0,0,0,0,0,0,0,0,0,0,0,0,0,0,0,0,0,0,0,0,0,0],"split_type":[0,0,0,0,0,0,0,0,0,0,0,0,0,0,0,0,0,0,0,0,0,0,0,0,0,0,0,0,0,0,0,0,0,0,0,0,0,0,0,0,0,0,0,0,0,0,0,0,0,0,0,0,0,0,0,0,0,0,0,0,0,0,0,0,0,0,0,0,0,0,0,0,0,0,0,0,0,0,0,0,0,0,0,0,0,0,0,0,0,0,0,0,0,0,0,0,0,0,0,0,0,0,0,0,0,0,0,0,0,0,0,0,0,0,0,0,0,0,0,0,0,0,0],"sum_hessian":[2.7591508E4,1.016536E4,1.7426146E4,9.910856E3,2.5450388E2,8.9496045E3,8.476543E3,6.494411E3,3.4164456E3,4.0671833E1,2.1383205E2,8.284659E3,6.649447E2,8.604837E2,7.6160596E3,2.6411905E2,6.230292E3,3.3150676E3,1.01377815E2,1.5409294E1,2.526254E1,1.3122025E2,8.26118E1,1.2283926E3,7.0562666E3,5.6832104E2,9.6623665E1,8.1765924E2,4.2824463E1,5.1712485E3,2.444811E3,1.9745682E2,6.666223E1,6.162981E3,6.731092E1,7.4234357E2,2.572724E3,8.842575E1,1.2952062E1,1.0013333E1,5.395961E0,5.038779E0,2.022376E1,3.0728981E1,1.00491264E2,1.0062617E1,7.254918E1,4.079308E2,8.2046185E2,4.4803984E3,2.5758684E3,4.9344382E2,7.487723E1,5.766532E1,3.895834E1,5.7815814E2,2.395011E2,2.2245861E1,2.0578602E1,2.92063E3,2.2506184E3,1.7059614E3,7.388498E2,1.321049E2,6.535191E1,3.0619183E1,3.6043053E1,3.536694E3,2.6262869E3,3.3424744E1,3.3886173E1,7.412478E2,1.095807E0,1.4503802E3,1.1223439E3,6.687133E1,2.1554422E1,2.7106354E0,7.302698E0,1.4559541E0,3.9400067E0,7.000557E0,1.3223204E1,1.8653574E1,1.2075408E1,5.9670353E0,9.452423E1,2.526435E0,7.5361824E0,5.9626755E1,1.2922428E1,4.0435184E2,3.5789304E0,2.604321E0,8.1785754E2,3.9929417E3,4.8745663E2,1.6089529E3,9.669156E2,2.0353798E2,2.8990582E2,6.553782E0,6.832345E1,5.4353863E1,3.3114595E0,9.160683E0,2.9797657E1,3.528979E2,2.2526025E2,2.3095505E2,8.546055E0,1.7871954E1,4.3739076E0,8.716719E0,1.1861882E1,2.6496604E3,2.7096948E2,1.5972073E3,6.534111E2,1.6155027E3,9.0458664E1,6.7401807E2,6.48317E1],"tree_param":{"num_deleted":"0","num_feature":"5","num_nodes":"123","size_leaf_vector":"1"}},{"base_weights":[3.0896392E-1,7.6876783E-1,8.424729E-2,8.016612E-1,-2.2084305E-1,5.7141393E-1,2.5957486E-2,9.050875E-1,6.1810976E-1,-5.4055893E-1,-1.5513036E-1,6.750199E-1,2.6651484E-1,-1.0026219E-1,3.0749205E-1,5.3625154E-1,9.221786E-1,2.2606897E-1,6.735955E-1,-3.6635783E-1,-7.915738E-1,-2.0796935E-1,1.3876979E-1,6.978843E-1,-6.746376E-2,3.1148082E-1,-2.9894972E-1,2.8495824E-2,-2.596644E-1,4.868672E-1,1.3119617E-1,7.1920466E-1,3.43446E-1,9.2777485E-1,4.5991573E-1,1.2386378E-1,6.150137E-1,9.1585666E-1,6.0516965E-1,-2.6538205E-1,-2.7160707E-1,-3.3958137E-1,-5.467348E-1,-6.487077E-3,-3.645795E-1,-3.6257917E-1,1.970705E-1,7.92089E-1,5.9713906E-1,1.841935E-2,-9.199453E-1,3.3313447E-1,-8.45863E-2,-5.071787E-2,-4.126787E-1,2.1548489E-1,-1.3871996E-1,-2.1195543E-1,-5.1311934E-1,5.0710344E-1,-6.672671E-2,2.4585705E-1,5.6211594E-2,2.5702658E-1,1.7172217E-1,6.804061E-2,2.053185E-1,2.8589165E-1,2.5190887E-1,8.778629E-2,2.7315354E-1,9.707575E-2,-2.752493E-1,2.0658554E-1,1.5793777E-1,2.765847E-1,-3.147807E-2,1.273467E-1,2.5509256E-1,9.494972E-2,-1.0288619E-1,-2.4336316E-1,-1.1040613E-1,1.12044355E-2,-1.5438738E-1,-7.910408E-2,-1.5767737E-1,1.09085776E-1,-3.05099E-1,1.698242E-1,1.6998798E-2,6.757275E-2,2.4057876E-1,1.8149504E-1,6.058647E-2,-5.5185076E-2,7.08159E-2,-3.4614792E-1,-5.3643793E-2,1.057151E-1,-3.504592E-2,-8.687333E-2,1.7398916E-1,5.3307332E-2,-5.717616E-2,-1.8221779E-1,-1.0180428E-1,7.396672E-2,-1.20368786E-1,-1.9414566E-2,-8.3059676E-2,-4.314843E-2,-1.16666116E-1,-2.3296212E-1,-1.3566354E-1,1.7612712E-1,1.141881E-1,-1.6361326E-1,-2.256777E-3,7.966037E-2,-3.541109E-2,2.2847693E-2,-7.874726E-2],"categories":[],"categories_nodes":[],"categories_segments":[],"categories_sizes":[],"default_left":[0,0,0,0,0,0,0,0,0,0,0,0,0,0,0,0,0,0,0,0,0,0,0,0,0,0,0,0,0,0,0,0,0,0,0,0,0,0,0,0,0,0,0,0,0,0,0,0,0,0,0,0,0,0,0,0,0,0,0,0,0,0,0,0,0,0,0,0,0,0,0,0,0,0,0,0,0,0,0,0,0,0,0,0,0,0,0,0,0,0,0,0,0,0,0,0,0,0,0,0,0,0,0,0,0,0,0,0,0,0,0,0,0,0,0,0,0,0,0,0,0,0,0],"id":3,"left_children":[1,3,5,7,9,11,13,15,17,19,21,23,25,27,29,31,33,35,37,39,41,43,45,47,49,51,53,55,57,59,61,63,65,67,69,71,73,75,77,-1,79,-1,81,83,85,87,89,91,93,95,97,99,101,103,105,107,109,111,113,115,117,119,121,-1,-1,-1,-1,-1,-1,-1,-1,-1,-1,-1,-1,-1,-1,-1,-1,-1,-1,-1,-1,-1,-1,-1,-1,-1,-1,-1,-1,-1,-1,-1,-1,-1,-1,-1,-1,-1,-1,-1,-1,-1,-1,-1,-1,-1,-1,-1,-1,-1,-1,-1,-1,-1,-1,-1,-1,-1,-1,-1,-1],"loss_changes":[2.5912395E3,2.681704E2,4.7839017E2,1.5071094E2,5.496896E0,5.6690674E1,5.347577E2,3.1619629E1,6.2384644E1,1.6727209E0,3.472435E0,2.2847473E1,1.1744896E1,2.1326598E2,1.4724509E2,7.7955017E0,1.2164551E1,1.4152895E1,4.118567E1,1.152271E0,8.4173584E-1,5.941002E0,1.0766749E0,1.1893494E1,3.0212736E0,3.6729736E0,9.46445E-1,1.7977614E2,5.6033264E1,2.5896301E1,2.0196747E1,1.8533669E0,4.3357306E0,9.871094E0,4.2718E0,5.951182E1,1.21328354E-1,3.5334167E0,8.673236E1,0E0,1.1750867E0,0E0,2.7470875E-1,1.8767661E0,1.5828409E0,2.239757E0,1.597743E0,3.5582886E0,1.8423157E0,1.7284722E0,4.4808555E-1,3.5330086E0,3.2776935E0,4.1425228E-1,1.2742424E-1,5.210913E1,3.1014225E1,4.7063675E1,1.1438217E1,2.2309021E1,2.3280404E0,6.684498E0,9.063387E0,0E0,0E0,0E0,0E0,0E0,0E0,0E0,0E0,0E0,0E0,0E0,0E0,0E0,0E0,0E0,0E0,0E0,0E0,0E0,0E0,0E0,0E0,0E0,0E0,0E0,0E0,0E0,0E0,0E0,0E0,0E0,0E0,0E0,0E0,0E0,0E0,0E0,0E0,0E0,0E0,0E0,0E0,0E0,0E0,0E0,0E0,0E0,0E0,0E0,0E0,0E0,0E0,0E0,0E0,0E0,0E0,0E0,0E0,0E0,0E0],"parents":[2147483647,0,0,1,1,2,2,3,3,4,4,5,5,6,6,7,7,8,8,9,9,10,10,11,11,12,12,13,13,14,14,15,15,16,16,17,17,18,18,19,19,20,20,21,21,22,22,23,23,24,24,25,25,26,26,27,27,28,28,29,29,30,30,31,31,32,32,33,33,34,34,35,35,36,36,37,37,38,38,40,40,42,42,43,43,44,44,45,45,46,46,47,47,48,48,49,49,50,50,51,51,52,52,53,53,54,54,55,55,56,56,57,57,58,58,59,59,60,60,61,61,62,62],"right_children":[2,4,6,8,10,12,14,16,18,20,22,24,26,28,30,32,34,36,38,40,42,44,46,48,50,52,54,56,58,60,62,64,66,68,70,72,74,76,78,-1,80,-1,82,84,86,88,90,92,94,96,98,100,102,104,106,108,110,112,114,116,118,120,122,-1,-1,-1,-1,-1,-1,-1,-1,-1,-1,-1,-1,-1,-1,-1,-1,-1,-1,-1,-1,-1,-1,-1,-1,-1,-1,-1,-1,-1,-1,-1,-1,-1,-1,-1,-1,-1,-1,-1,-1,-1,-1,-1,-1,-1,-1,-1,-1,-1,-1,-1,-1,-1,-1,-1,-1,-1,-1,-1,-1],"split_conditions":[7E0,1E0,1E0,5E0,-1.4960896E0,1.1E1,4E0,-1.4960896E0,-7.795733E-1,6E0,4E0,1E0,1E0,2E0,1E1,3E0,1E0,4E0,1E0,-2.929122E0,-2.2126057E0,2E0,1E0,9E0,1E0,2.0864916E0,1.2E1,1E1,1E0,1E0,1.1E1,2E0,4E0,4E0,4E0,3E0,6E0,3.519524E0,4E0,-2.6538205E-1,2E0,-3.3958137E-1,2E0,1E0,6.5345913E-1,6.5345913E-1,4E0,-1.4960896E0,1E0,6.5345913E-1,-6.305709E-2,1E0,3.519524E0,6.5345913E-1,-6.305709E-2,1E0,1.2E1,3E0,-7.795733E-1,9E0,-7.795733E-1,1E0,1E0,2.5702658E-1,1.7172217E-1,6.804061E-2,2.053185E-1,2.8589165E-1,2.5190887E-1,8.778629E-2,2.7315354E-1,9.707575E-2,-2.752493E-1,2.0658554E-1,1.5793777E-1,2.765847E-1,-3.147807E-2,1.273467E-1,2.5509256E-1,9.494972E-2,-1.0288619E-1,-2.4336316E-1,-1.1040613E-1,1.12044355E-2,-1.5438738E-1,-7.910408E-2,-1.5767737E-1,1.09085776E-1,-3.05099E-1,1.698242E-1,1.6998798E-2,6.757275E-2,2.4057876E-1,1.8149504E-1,6.058647E-2,-5.5185076E-2,7.08159E-2,-3.4614792E-1,-5.3643793E-2,1.057151E-1,-3.504592E-2,-8.687333E-2,1.7398916E-1,5.3307332E-2,-5.717616E-2,-1.8221779E-1,-1.0180428E-1,7.396672E-2,-1.20368786E-1,-1.9414566E-2,-8.3059676E-2,-4.314843E-2,-1.16666116E-1,-2.3296212E-1,-1.3566354E-1,1.7612712E-1,1.141881E-1,-1.6361326E-1,-2.256777E-3,7.966037E-2,-3.541109E-2,2.2847693E-2,-7.874726E-2],"split_indices":[0,3,4,0,1,0,4,1,1,0,4,3,3,4,0,0,2,4,4,1,1,4,0,0,2,1,0,0,2,3,0,4,4,0,4,4,0,1,4,0,0,0,4,2,1,1,0,1,2,1,1,2,1,1,1,2,0,4,1,0,1,3,2,0,0,0,0,0,0,0,0,0,0,0,0,0,0,0,0,0,0,0,0,0,0,0,0,0,0,0,0,0,0,0,0,0,0,0,0,0,0,0,0,0,0,0,0,0,0,0,0,0,0,0,0,0,0,0,0,0,0,0,0],"split_type":[0,0,0,0,0,0,0,0,0,0,0,0,0,0,0,0,0,0,0,0,0,0,0,0,0,0,0,0,0,0,0,0,0,0,0,0,0,0,0,0,0,0,0,0,0,0,0,0,0,0,0,0,0,0,0,0,0,0,0,0,0,0,0,0,0,0,0,0,0,0,0,0,0,0,0,0,0,0,0,0,0,0,0,0,0,0,0,0,0,0,0,0,0,0,0,0,0,0,0,0,0,0,0,0,0,0,0,0,0,0,0,0,0,0,0,0,0,0,0,0,0,0,0],"sum_hessian":[2.5078012E4,8.231896E3,1.6846115E4,7.967265E3,2.6463135E2,1.7993071E3,1.5046808E4,5.0933623E3,2.873903E3,4.388567E1,2.2074568E2,1.3420566E3,4.5725043E2,1.0389537E4,4.657271E3,2.2699846E2,4.866364E3,3.5694446E2,2.5169585E3,2.7358633E1,1.6527035E1,1.8735445E2,3.3391235E1,1.3020216E3,4.003503E1,4.239842E2,3.326623E1,5.7476567E3,4.6418804E3,2.307602E3,2.3496687E3,1.1507427E2,1.1192418E2,4.807161E3,5.9202896E1,2.8371066E2,7.323378E1,5.516084E2,1.9653501E3,2.9402878E0,2.4418346E1,5.3987494E0,1.1128285E1,8.2394104E1,1.0496034E2,2.9347897E0,3.0456446E1,6.69306E2,6.3271564E2,3.72597E1,2.7753294E0,4.021565E2,2.1827679E1,1.09066515E1,2.2359581E1,2.7132622E3,3.0343943E3,3.9080813E3,7.3379926E2,2.226305E3,8.12971E1,9.281427E2,1.4215261E3,5.691143E1,5.816284E1,8.463458E1,2.7289598E1,3.7302117E3,1.0769492E3,4.437646E1,1.4826436E1,2.3863272E2,4.5077957E1,3.629223E1,3.694155E1,5.48432E2,3.1763957E0,1.1329995E3,8.323506E2,2.2700953E0,2.214825E1,3.060286E0,8.068E0,7.670366E1,5.690448E0,6.614666E1,3.881368E1,1.6017314E0,1.3330581E0,7.558922E0,2.2897524E1,1.1828262E1,6.574777E2,6.198802E2,1.2835482E1,1.9387106E1,1.7872593E1,1.6863284E0,1.0890008E0,3.8586588E2,1.6290628E1,1.7113108E1,4.71457E0,4.039565E0,6.867087E0,4.1246467E0,1.8234934E1,2.5836929E3,1.2956949E2,1.9768579E3,1.0575364E3,2.8229285E3,1.0851527E3,1.355979E2,5.9820135E2,1.3615708E3,8.64734E2,8.044827E0,7.3252266E1,8.807847E2,4.735801E1,1.3385106E3,8.3015495E1],"tree_param":{"num_deleted":"0","num_feature":"5","num_nodes":"123","size_leaf_vector":"1"}},{"base_weights":[2.4616705E-1,6.8655676E-1,6.458131E-2,7.2154254E-1,-1.5476179E-1,4.7843754E-1,2.1047283E-2,8.417793E-1,5.250837E-1,-1.40655935E-2,-2.3429415E-1,5.825469E-1,2.031928E-1,-6.8136595E-2,2.3730345E-1,5.8993953E-1,8.762392E-1,8.4375703E-1,4.499331E-1,3.7726644E-2,-3.91234E-1,-2.736961E-1,8.579809E-2,6.0600114E-1,-5.5261746E-2,2.3962107E-1,-2.0822811E-1,-2.720621E-2,-3.44152E-1,3.9505577E-1,9.573514E-2,7.572609E-1,4.17361E-1,2.9003033E-1,8.3840245E-1,8.503801E-1,-7.91844E-2,2.7369824E-1,7.546112E-1,5.6056954E-2,-2.3007347E-1,-3.9640686E-1,-1.5878722E-1,-1.8299824E-1,-4.963733E-1,-7.0602246E-2,1.2860951E-1,7.0913273E-1,5.0153667E-1,1.4498396E-2,-7.3306316E-1,3.318654E-1,1.5623675E-1,-2.2295271E-1,-1.6994917E-1,4.9914993E-2,-1.8153882E-1,-3.3216608E-1,-6.488476E-1,4.135684E-1,-4.771826E-2,1.4965619E-1,-1.8932963E-2,1.888595E-1,2.5044355E-1,1.8281576E-1,6.751713E-2,2.1532024E-1,2.8186312E-1,2.689887E-1,2.405972E-1,1.2368768E-2,-5.9281252E-2,1.5879473E-1,-6.3098095E-2,2.518587E-1,2.0443478E-1,-1.6985295E-2,4.91151E-2,2.2958589E-1,-1.02525726E-1,-1.4248312E-1,-3.9872758E-2,-9.458182E-2,-3.053498E-1,8.534183E-2,9.594562E-3,5.205133E-2,2.159993E-1,1.5278172E-1,4.597184E-2,-3.7983518E-2,5.3228937E-2,-2.745165E-1,-4.475885E-2,-2.2210054E-1,1.0289098E-1,6.398852E-2,-3.8721018E-2,-3.413528E-2,-1.7648429E-1,2.5290385E-2,-7.9076685E-2,-3.2494996E-2,-8.530791E-2,-8.215487E-2,-1.1273991E-1,-2.3088658E-1,1.2126559E-1,1.4729454E-1,8.935031E-2,-2.2182022E-3,-2.1614131E-1,4.97825E-2,-5.5401325E-2,4.2293262E-4,-6.4535215E-2],"categories":[],"categories_nodes":[],"categories_segments":[],"categories_sizes":[],"default_left":[0,0,0,0,0,0,0,0,0,0,0,0,0,0,0,0,0,0,0,0,0,0,0,0,0,0,0,0,0,0,0,0,0,0,0,0,0,0,0,0,0,0,0,0,0,0,0,0,0,0,0,0,0,0,0,0,0,0,0,0,0,0,0,0,0,0,0,0,0,0,0,0,0,0,0,0,0,0,0,0,0,0,0,0,0,0,0,0,0,0,0,0,0,0,0,0,0,0,0,0,0,0,0,0,0,0,0,0,0,0,0,0,0,0,0,0,0],"id":4,"left_children":[1,3,5,7,9,11,13,15,17,19,21,23,25,27,29,31,33,35,37,39,41,43,45,47,49,51,53,55,57,59,61,63,65,-1,67,69,71,73,75,77,-1,-1,79,81,83,-1,85,87,89,91,93,95,97,-1,99,101,103,105,107,109,111,113,115,-1,-1,-1,-1,-1,-1,-1,-1,-1,-1,-1,-1,-1,-1,-1,-1,-1,-1,-1,-1,-1,-1,-1,-1,-1,-1,-1,-1,-1,-1,-1,-1,-1,-1,-1,-1,-1,-1,-1,-1,-1,-1,-1,-1,-1,-1,-1,-1,-1,-1,-1,-1,-1,-1],"loss_changes":[1.848971E3,1.9880151E2,2.9497034E2,1.5264893E2,3.021607E0,4.453488E1,2.8575085E2,3.435913E1,5.8611023E1,1.9425625E0,2.2008219E0,1.6938843E1,6.4822598E0,1.1850253E2,9.6574554E1,1.3739944E1,1.1291016E1,2.9335632E0,1.0693262E2,1.3362687E0,2.3853636E0,3.018467E0,3.0087692E-1,1.1388519E1,1.9492234E0,2.9843903E0,5.995183E-1,1.08755295E2,4.7316284E0,1.6788574E1,1.41081295E1,1.9104462E0,8.7936325E0,0E0,2.9826294E1,3.2302856E-1,6.883038E-2,1.5670967E2,3.9671326E0,1.06054E0,0E0,0E0,2.0773818E0,1.5597653E0,3.8318357E0,0E0,2.6221013E-1,3.0532532E0,1.390274E0,8.996747E-1,2.7207804E-1,2.4747238E0,3.4333954E0,0E0,7.4071777E-1,6.570632E1,2.2890907E1,3.21875E0,6.698414E0,1.7447723E1,2.2462564E0,8.479496E0,2.9157958E0,0E0,0E0,0E0,0E0,0E0,0E0,0E0,0E0,0E0,0E0,0E0,0E0,0E0,0E0,0E0,0E0,0E0,0E0,0E0,0E0,0E0,0E0,0E0,0E0,0E0,0E0,0E0,0E0,0E0,0E0,0E0,0E0,0E0,0E0,0E0,0E0,0E0,0E0,0E0,0E0,0E0,0E0,0E0,0E0,0E0,0E0,0E0,0E0,0E0,0E0,0E0,0E0,0E0,0E0],"parents":[2147483647,0,0,1,1,2,2,3,3,4,4,5,5,6,6,7,7,8,8,9,9,10,10,11,11,12,12,13,13,14,14,15,15,16,16,17,17,18,18,19,19,20,20,21,21,22,22,23,23,24,24,25,25,26,26,27,27,28,28,29,29,30,30,31,31,32,32,34,34,35,35,36,36,37,37,38,38,39,39,42,42,43,43,44,44,46,46,47,47,48,48,49,49,50,50,51,51,52,52,54,54,55,55,56,56,57,57,58,58,59,59,60,60,61,61,62,62],"right_children":[2,4,6,8,10,12,14,16,18,20,22,24,26,28,30,32,34,36,38,40,42,44,46,48,50,52,54,56,58,60,62,64,66,-1,68,70,72,74,76,78,-1,-1,80,82,84,-1,86,88,90,92,94,96,98,-1,100,102,104,106,108,110,112,114,116,-1,-1,-1,-1,-1,-1,-1,-1,-1,-1,-1,-1,-1,-1,-1,-1,-1,-1,-1,-1,-1,-1,-1,-1,-1,-1,-1,-1,-1,-1,-1,-1,-1,-1,-1,-1,-1,-1,-1,-1,-1,-1,-1,-1,-1,-1,-1,-1,-1,-1,-1,-1,-1,-1],"split_conditions":[7E0,1E0,1E0,5E0,5E0,1.1E1,4E0,-7.795733E-1,1E0,1E0,4E0,1E0,1E0,1E0,1E1,3E0,1E0,3.519524E0,4E0,4.23604E0,2E0,3E0,-1.4960896E0,9E0,1E0,1.2E1,-7.795733E-1,1.1E1,2.8030078E0,1E0,1.2E1,-1.4960896E0,2E0,2.9003033E-1,4E0,6E0,4.9525566E0,2E0,6E0,-6.305709E-2,-2.3007347E-1,-3.9640686E-1,2E0,-1.4960896E0,6.5345913E-1,-7.0602246E-2,6E0,-1.4960896E0,1E0,6.5345913E-1,-6.305709E-2,-2.2126057E0,1.3699753E0,-2.2295271E-1,1E0,1E0,2E0,1E1,5.6690726E0,9E0,2.0864916E0,1E0,1E0,1.888595E-1,2.5044355E-1,1.8281576E-1,6.751713E-2,2.1532024E-1,2.8186312E-1,2.689887E-1,2.405972E-1,1.2368768E-2,-5.9281252E-2,1.5879473E-1,-6.3098095E-2,2.518587E-1,2.0443478E-1,-1.6985295E-2,4.91151E-2,2.2958589E-1,-1.02525726E-1,-1.4248312E-1,-3.9872758E-2,-9.458182E-2,-3.053498E-1,8.534183E-2,9.594562E-3,5.205133E-2,2.159993E-1,1.5278172E-1,4.597184E-2,-3.7983518E-2,5.3228937E-2,-2.745165E-1,-4.475885E-2,-2.2210054E-1,1.0289098E-1,6.398852E-2,-3.8721018E-2,-3.413528E-2,-1.7648429E-1,2.5290385E-2,-7.9076685E-2,-3.2494996E-2,-8.530791E-2,-8.215487E-2,-1.1273991E-1,-2.3088658E-1,1.2126559E-1,1.4729454E-1,8.935031E-2,-2.2182022E-3,-2.1614131E-1,4.97825E-2,-5.5401325E-2,4.2293262E-4,-6.4535215E-2],"split_indices":[0,3,4,0,0,0,4,1,4,2,4,3,3,3,0,0,4,1,4,1,0,4,1,0,2,0,1,0,1,3,0,1,4,0,4,0,1,4,0,1,0,0,4,1,1,0,0,1,2,1,1,1,1,0,2,2,4,0,1,0,1,2,3,0,0,0,0,0,0,0,0,0,0,0,0,0,0,0,0,0,0,0,0,0,0,0,0,0,0,0,0,0,0,0,0,0,0,0,0,0,0,0,0,0,0,0,0,0,0,0,0,0,0,0,0,0,0],"split_type":[0,0,0,0,0,0,0,0,0,0,0,0,0,0,0,0,0,0,0,0,0,0,0,0,0,0,0,0,0,0,0,0,0,0,0,0,0,0,0,0,0,0,0,0,0,0,0,0,0,0,0,0,0,0,0,0,0,0,0,0,0,0,0,0,0,0,0,0,0,0,0,0,0,0,0,0,0,0,0,0,0,0,0,0,0,0,0,0,0,0,0,0,0,0,0,0,0,0,0,0,0,0,0,0,0,0,0,0,0,0,0,0,0,0,0,0,0],"sum_hessian":[2.3120799E4,6.7493057E3,1.6371494E4,6.4799814E3,2.693243E2,1.5572745E3,1.481422E4,4.0177524E3,2.4622292E3,9.768759E1,1.7163672E2,1.1290884E3,4.2818613E2,1.0489176E4,4.3250435E3,4.8577026E2,3.5319822E3,4.678979E2,1.9943313E3,8.668421E1,1.100338E1,1.5295374E2,1.8682991E1,1.089089E3,3.999938E1,3.9374088E2,3.4445263E1,9.135561E3,1.3536157E3,2.0447491E3,2.2802942E3,2.4492163E2,2.4084865E2,1.0338453E3,2.4981367E3,4.646422E2,3.255685E0,1.2646934E3,7.2963794E2,8.566307E1,1.0211415E0,1.2634012E0,9.739979E0,1.0997998E2,4.2973755E1,1.6686776E0,1.7014313E1,5.451281E2,5.439609E2,3.715405E1,2.84533E0,1.8552403E2,2.0821683E2,1.070486E0,3.3374775E1,6.0920117E3,3.0435488E3,1.3043943E3,4.9221355E1,1.9627513E3,8.199775E1,1.5507642E3,7.2952997E2,9.5971146E1,1.4895049E2,1.19426544E2,1.214221E2,1.1427982E3,1.3553385E3,2.2861302E2,2.3602917E2,1.9374511E0,1.318234E0,8.275592E2,4.3713416E2,3.3284085E2,3.967971E2,4.2088394E1,4.3574677E1,1.0837526E0,8.656226E0,1.4863812E1,9.5116165E1,3.3087284E1,9.886473E0,5.767367E0,1.1246946E1,1.1175118E1,5.33953E2,5.3168976E2,1.2271126E1,2.0029766E1,1.7124283E1,1.7367514E0,1.1085786E0,1.2285832E0,1.8429546E2,1.7372592E2,3.4490913E1,3.0545723E1,2.8290513E0,5.4905215E3,6.0148987E2,1.7788346E3,1.2647142E3,5.613814E2,7.430129E2,4.439853E1,4.822829E0,1.1741388E3,7.886126E2,7.831463E1,3.6831243E0,1.4792136E3,7.155052E1,6.6189014E2,6.763985E1],"tree_param":{"num_deleted":"0","num_feature":"5","num_nodes":"117","size_leaf_vector":"1"}},{"base_weights":[1.9290708E-1,6.882302E-1,7.096325E-2,7.179287E-1,-4.670605E-2,1.8383275E-1,-4.5197245E-2,8.219549E-1,5.6472474E-1,-1.6765222E-1,-3.3134677E-2,5.777454E-1,1.3731755E-1,2.1932708E-1,-6.684949E-2,5.9877646E-1,8.5245967E-1,8.682631E-1,4.770086E-1,5.5594068E-2,-8.1798784E-2,6.02209E-1,-3.0543884E-2,5.3580582E-2,3.5408577E-1,2.9438758E-1,7.768067E-2,-1.2032021E-1,6.918069E-2,6.7706984E-1,4.3037212E-1,8.579616E-1,3.602903E-1,8.810953E-1,1.662272E-1,2.519565E-1,8.007944E-1,1.6468596E-1,-1.307176E-1,-2.7146125E-1,-3.5950173E-2,7.134027E-1,5.063144E-1,2.999875E-2,-5.615298E-1,1.0935626E-1,-2.7366608E-1,4.9933615E-1,2.6245007E-1,3.1000057E-1,-1.4791058E-1,1.15023755E-1,-2.289778E-1,-6.70766E-2,-1.8673734E-1,-2.1587875E-1,8.299877E-2,1.6147518E-1,2.3008287E-1,9.619834E-2,2.0352413E-1,2.710465E-1,2.4365963E-1,2.3147272E-1,2.2557663E-2,4.5865975E-2,2.6627135E-1,9.188968E-2,3.3536747E-3,1.538792E-1,-8.58919E-2,2.0637691E-1,2.5666556E-1,-4.0786624E-2,6.953289E-2,-1.24225065E-1,1.2400513E-2,2.0590343E-2,-1.9731104E-1,-5.79026E-2,1.0973351E-2,2.1547426E-1,-1.8873863E-2,-1.3127616E-1,1.535346E-1,6.979308E-2,-4.563054E-2,-3.6625722E-1,1.010606E-1,4.143518E-2,-6.324934E-2,-1.3546489E-1,-5.168443E-2,1.5697497E-1,-2.3939338E-2,8.290466E-2,-6.8070434E-2,9.729241E-2,1.3102157E-2,-8.547646E-2,1.3126442E-1,4.770142E-2,-2.6510274E-2,-1.0814606E-1,-5.4625902E-2,-1.4071652E-2,-6.8606324E-2,-4.8918232E-2,-8.883501E-2,3.2070234E-2,-8.005055E-2,4.841383E-2,1.0500957E-2],"categories":[],"categories_nodes":[],"categories_segments":[],"categories_sizes":[],"default_left":[0,0,0,0,0,0,0,0,0,0,0,0,0,0,0,0,0,0,0,0,0,0,0,0,0,0,0,0,0,0,0,0,0,0,0,0,0,0,0,0,0,0,0,0,0,0,0,0,0,0,0,0,0,0,0,0,0,0,0,0,0,0,0,0,0,0,0,0,0,0,0,0,0,0,0,0,0,0,0,0,0,0,0,0,0,0,0,0,0,0,0,0,0,0,0,0,0,0,0,0,0,0,0,0,0,0,0,0,0,0,0,0,0],"id":5,"left_children":[1,3,5,7,9,11,13,15,17,-1,19,21,23,25,27,29,31,33,35,37,39,41,43,45,47,49,51,53,55,57,59,61,63,65,67,69,71,73,75,77,79,81,83,85,87,89,91,93,95,97,99,101,103,105,107,109,111,-1,-1,-1,-1,-1,-1,-1,-1,-1,-1,-1,-1,-1,-1,-1,-1,-1,-1,-1,-1,-1,-1,-1,-1,-1,-1,-1,-1,-1,-1,-1,-1,-1,-1,-1,-1,-1,-1,-1,-1,-1,-1,-1,-1,-1,-1,-1,-1,-1,-1,-1,-1,-1,-1,-1,-1],"loss_changes":[1.3057322E3,9.324744E1,2.2746588E2,6.4956055E1,1.1408914E0,1.6114706E2,4.898792E1,1.6118896E1,4.3869995E1,0E0,7.108234E-1,1.3842743E1,1.4285448E2,6.8578377E0,5.750136E1,3.625595E0,5.50354E0,3.2017212E0,9.398645E1,1.2111758E0,9.123228E-1,9.162109E0,1.2020781E0,1.03685486E2,2.9060059E1,2.9645042E0,2.6088586E0,2.0053604E1,8.80562E0,2.095543E0,2.422861E0,3.687378E0,2.9267144E0,1.5844727E0,1.6823594E-1,1.0746949E2,2.6844788E0,7.850301E-1,1.0981293E0,2.736765E0,9.929352E-1,1.5914917E0,2.7166367E0,1.291691E0,2.6765027E0,4.4717594E1,1.4841595E1,1.1775909E1,9.22332E0,1.5426445E0,1.3349156E0,1.8183401E0,8.738768E-2,1.0261402E1,6.488884E0,1.7295823E0,8.001763E0,0E0,0E0,0E0,0E0,0E0,0E0,0E0,0E0,0E0,0E0,0E0,0E0,0E0,0E0,0E0,0E0,0E0,0E0,0E0,0E0,0E0,0E0,0E0,0E0,0E0,0E0,0E0,0E0,0E0,0E0,0E0,0E0,0E0,0E0,0E0,0E0,0E0,0E0,0E0,0E0,0E0,0E0,0E0,0E0,0E0,0E0,0E0,0E0,0E0,0E0,0E0,0E0,0E0,0E0,0E0,0E0],"parents":[2147483647,0,0,1,1,2,2,3,3,4,4,5,5,6,6,7,7,8,8,10,10,11,11,12,12,13,13,14,14,15,15,16,16,17,17,18,18,19,19,20,20,21,21,22,22,23,23,24,24,25,25,26,26,27,27,28,28,29,29,30,30,31,31,32,32,33,33,34,34,35,35,36,36,37,37,38,38,39,39,40,40,41,41,42,42,43,43,44,44,45,45,46,46,47,47,48,48,49,49,50,50,51,51,52,52,53,53,54,54,55,55,56,56],"right_children":[2,4,6,8,10,12,14,16,18,-1,20,22,24,26,28,30,32,34,36,38,40,42,44,46,48,50,52,54,56,58,60,62,64,66,68,70,72,74,76,78,80,82,84,86,88,90,92,94,96,98,100,102,104,106,108,110,112,-1,-1,-1,-1,-1,-1,-1,-1,-1,-1,-1,-1,-1,-1,-1,-1,-1,-1,-1,-1,-1,-1,-1,-1,-1,-1,-1,-1,-1,-1,-1,-1,-1,-1,-1,-1,-1,-1,-1,-1,-1,-1,-1,-1,-1,-1,-1,-1,-1,-1,-1,-1,-1,-1,-1,-1],"split_conditions":[6E0,1E0,1E1,4E0,-2.929122E0,1E0,1E0,-7.795733E-1,1E0,-1.6765222E-1,2E0,1E0,4E0,1.2E1,4E0,3E0,1E0,2.0864916E0,4E0,6.5345913E-1,3E0,8E0,1E0,3E0,8E0,2.0864916E0,1E0,2E0,-7.795733E-1,-1.4960896E0,4E0,2E0,2E0,-2.2126057E0,5E0,2E0,-6.305709E-2,-1.4960896E0,4E0,2E0,-7.795733E-1,3.519524E0,-2.929122E0,8E0,8E0,1E0,8E0,1E0,1E0,1E0,3.519524E0,1.3699753E0,-6.305709E-2,1E0,1E0,-2.2126057E0,1.1E1,1.6147518E-1,2.3008287E-1,9.619834E-2,2.0352413E-1,2.710465E-1,2.4365963E-1,2.3147272E-1,2.2557663E-2,4.5865975E-2,2.6627135E-1,9.188968E-2,3.3536747E-3,1.538792E-1,-8.58919E-2,2.0637691E-1,2.5666556E-1,-4.0786624E-2,6.953289E-2,-1.24225065E-1,1.2400513E-2,2.0590343E-2,-1.9731104E-1,-5.79026E-2,1.0973351E-2,2.1547426E-1,-1.8873863E-2,-1.3127616E-1,1.535346E-1,6.979308E-2,-4.563054E-2,-3.6625722E-1,1.010606E-1,4.143518E-2,-6.324934E-2,-1.3546489E-1,-5.168443E-2,1.5697497E-1,-2.3939338E-2,8.290466E-2,-6.8070434E-2,9.729241E-2,1.3102157E-2,-8.547646E-2,1.3126442E-1,4.770142E-2,-2.6510274E-2,-1.0814606E-1,-5.4625902E-2,-1.4071652E-2,-6.8606324E-2,-4.8918232E-2,-8.883501E-2,3.2070234E-2,-8.005055E-2,4.841383E-2,1.0500957E-2],"split_indices":[0,3,0,0,1,4,4,1,4,0,4,3,4,0,4,0,2,1,4,1,0,0,2,4,0,1,3,4,1,1,4,0,0,1,0,4,1,1,0,0,1,1,1,0,0,2,0,3,2,3,1,1,1,3,3,1,0,0,0,0,0,0,0,0,0,0,0,0,0,0,0,0,0,0,0,0,0,0,0,0,0,0,0,0,0,0,0,0,0,0,0,0,0,0,0,0,0,0,0,0,0,0,0,0,0,0,0,0,0,0,0,0,0],"split_type":[0,0,0,0,0,0,0,0,0,0,0,0,0,0,0,0,0,0,0,0,0,0,0,0,0,0,0,0,0,0,0,0,0,0,0,0,0,0,0,0,0,0,0,0,0,0,0,0,0,0,0,0,0,0,0,0,0,0,0,0,0,0,0,0,0,0,0,0,0,0,0,0,0,0,0,0,0,0,0,0,0,0,0,0,0,0,0,0,0,0,0,0,0,0,0,0,0,0,0,0,0,0,0,0,0,0,0,0,0,0,0,0,0],"sum_hessian":[2.1617316E4,4.2696797E3,1.7347637E4,4.103867E3,1.6581245E2,8.798159E3,8.549479E3,2.4416265E3,1.6622408E3,3.243321E0,1.6256912E2,9.279996E2,7.8701597E3,6.4616656E2,7.9033115E3,2.9608014E2,2.1455464E3,3.7066605E2,1.2915748E3,5.753102E1,1.0503811E2,8.9213074E2,3.5868835E1,5.678008E3,2.1921519E3,4.2164987E2,2.2451671E2,5.6733486E3,2.2299631E3,2.0005258E2,9.602754E1,2.1210916E3,2.4454672E1,3.6376196E2,6.9040885E0,7.630109E2,5.285639E2,3.6358147E1,2.1172874E1,1.9490541E1,8.554756E1,4.101294E2,4.8200137E2,3.3044617E1,2.8242197E0,4.8517456E3,8.262621E2,8.4627875E2,1.3458732E3,4.0756216E2,1.4087707E1,2.0070139E2,2.381533E1,3.1500813E3,2.5232673E3,1.0242235E2,2.1275408E3,8.136459E1,1.18687996E2,6.81687E1,2.785884E1,1.0538945E3,1.0671971E3,9.313119E0,1.5141553E1,3.423286E0,3.6033865E2,3.1147213E0,3.7893672E0,5.1389734E2,2.4911357E2,1.7709041E2,3.5147348E2,6.4460464E0,2.99121E1,7.4674554E0,1.370542E1,1.0801691E1,8.68885E0,2.6500313E1,5.9047253E1,4.0766006E2,2.4693244E0,2.3207595E0,4.7968063E2,1.5508697E1,1.753592E1,1.4218261E0,1.4023936E0,4.4523774E3,3.993683E2,2.9870978E2,5.275523E2,8.1281244E2,3.3466328E1,1.3091261E3,3.6747158E1,3.86577E2,2.0985155E1,1.1832065E1,2.2556422E0,1.6519759E2,3.5503796E1,4.501896E0,1.9313435E1,2.801686E3,3.4839532E2,2.076313E3,4.469542E2,1.3814911E1,8.860744E1,8.0710706E2,1.3204336E3],"tree_param":{"num_deleted":"0","num_feature":"5","num_nodes":"113","size_leaf_vector":"1"}},{"base_weights":[1.488838E-1,6.0777354E-1,5.2871533E-2,7.33497E-1,4.4390917E-1,1.8449453E-1,-1.1614272E-2,7.561791E-1,-2.8971618E-2,7.961374E-1,3.5839283E-1,5.4086775E-1,1.4406776E-1,2.1815084E-1,-2.9909702E-2,5.1190877E-1,7.922305E-1,3.856527E-3,-2.3664713E-1,8.1020296E-1,1.7703524E-1,1.6888967E-1,7.066402E-1,5.692782E-1,-4.591081E-2,7.430102E-2,3.4677145E-1,3.1524932E-1,1.0557604E-1,-7.03264E-2,7.5743906E-2,4.3014908E-1,6.887471E-1,8.533714E-1,7.3295194E-1,-3.4117585E-1,7.925277E-2,8.2424706E-1,1.9918056E-1,7.65439E-2,8.2899764E-2,3.9658222E-1,-1.6089155E-1,7.2996396E-1,-9.945636E-2,6.317138E-1,4.629741E-1,-2.6385894E-1,1.9849865E-1,2.1307836E-1,-7.636052E-2,3.6801657E-1,-8.960775E-2,3.2593232E-1,-6.9144025E-2,1.2625277E-1,-2.931924E-1,-5.035168E-2,-1.9553626E-1,9.092042E-2,-1.371908E-1,1.625133E-1,-3.692109E-1,2.6062998E-1,1.6104168E-1,2.5955674E-1,2.2244619E-1,2.2340764E-1,1.6573235E-2,1.2077506E-2,-2.7173206E-1,-5.14895E-3,8.9146644E-2,1.577205E-1,2.5548005E-1,9.525869E-2,2.2843238E-2,4.83899E-2,-1.4328373E-2,-2.8396082E-1,1.262637E-1,-3.4473506E-3,-1.7546025E-1,1.8098938E-1,2.3837991E-1,-1.6882338E-1,6.8458407E-3,1.0051758E-1,1.956624E-1,-4.4703722E-2,1.4349602E-1,1.5415342E-2,-1.0292775E-1,3.2248978E-2,1.9227155E-1,7.296219E-2,-5.3198636E-2,-2.7885844E-3,-6.266788E-2,1.5481137E-1,9.66219E-2,-1.4018313E-2,-3.8559914E-1,1.0045745E-1,3.683343E-3,-8.513876E-2,4.490297E-2,-1.3276345E-1,4.077111E-2,-4.9953263E-2,-2.1855548E-1,-5.7778573E-3,-4.0617384E-2,-2.1073188E-1,-5.720206E-2,3.656898E-2,-1.8540584E-3,-3.251719E-2,-1.9578922E-1],"categories":[],"categories_nodes":[],"categories_segments":[],"categories_sizes":[],"default_left":[0,0,0,0,0,0,0,0,0,0,0,0,0,0,0,0,0,0,0,0,0,0,0,0,0,0,0,0,0,0,0,0,0,0,0,0,0,0,0,0,0,0,0,0,0,0,0,0,0,0,0,0,0,0,0,0,0,0,0,0,0,0,0,0,0,0,0,0,0,0,0,0,0,0,0,0,0,0,0,0,0,0,0,0,0,0,0,0,0,0,0,0,0,0,0,0,0,0,0,0,0,0,0,0,0,0,0,0,0,0,0,0,0,0,0,0,0,0,0],"id":6,"left_children":[1,3,5,7,9,11,13,15,17,19,21,23,25,27,29,31,33,35,-1,37,39,41,43,45,47,49,51,53,55,57,59,61,63,65,67,69,71,73,75,-1,77,79,81,83,85,87,89,91,93,95,97,99,101,103,105,107,109,111,113,115,117,-1,-1,-1,-1,-1,-1,-1,-1,-1,-1,-1,-1,-1,-1,-1,-1,-1,-1,-1,-1,-1,-1,-1,-1,-1,-1,-1,-1,-1,-1,-1,-1,-1,-1,-1,-1,-1,-1,-1,-1,-1,-1,-1,-1,-1,-1,-1,-1,-1,-1,-1,-1,-1,-1,-1,-1,-1,-1],"loss_changes":[9.0252234E2,7.2693726E1,1.4380064E2,3.4680664E1,4.6140625E1,8.0183E1,4.7809593E1,1.6733276E1,1.4712234E0,2.471466E0,8.184624E1,9.48201E0,7.075119E1,9.135883E0,4.4987137E1,3.3634186E0,5.5144043E0,1.5206524E0,0E0,2.3529968E0,3.7307173E-2,6.05586E1,8.295731E0,3.298874E0,1.497041E0,7.789044E1,1.1910934E1,1.8699226E0,3.2523513E0,1.904752E1,9.433119E0,3.3232178E1,1.6771011E0,4.5306396E-1,6.8588867E0,2.2944639E0,1.0120862E0,1.8910065E0,9.0991616E-2,0E0,5.981024E-2,1.5960533E1,2.0881351E1,3.0017242E0,7.594315E-1,1.8372803E0,1.9867325E0,3.8644218E-1,4.6876836E-1,2.2850662E1,1.587741E1,8.143631E0,3.0308495E0,1.221798E0,6.526057E-1,2.0991259E0,9.554206E-1,1.7376308E1,2.4492989E0,8.187437E0,2.8143022E0,0E0,0E0,0E0,0E0,0E0,0E0,0E0,0E0,0E0,0E0,0E0,0E0,0E0,0E0,0E0,0E0,0E0,0E0,0E0,0E0,0E0,0E0,0E0,0E0,0E0,0E0,0E0,0E0,0E0,0E0,0E0,0E0,0E0,0E0,0E0,0E0,0E0,0E0,0E0,0E0,0E0,0E0,0E0,0E0,0E0,0E0,0E0,0E0,0E0,0E0,0E0,0E0,0E0,0E0,0E0,0E0,0E0,0E0],"parents":[2147483647,0,0,1,1,2,2,3,3,4,4,5,5,6,6,7,7,8,8,9,9,10,10,11,11,12,12,13,13,14,14,15,15,16,16,17,17,19,19,20,20,21,21,22,22,23,23,24,24,25,25,26,26,27,27,28,28,29,29,30,30,31,31,32,32,33,33,34,34,35,35,36,36,37,37,38,38,40,40,41,41,42,42,43,43,44,44,45,45,46,46,47,47,48,48,49,49,50,50,51,51,52,52,53,53,54,54,55,55,56,56,57,57,58,58,59,59,60,60],"right_children":[2,4,6,8,10,12,14,16,18,20,22,24,26,28,30,32,34,36,-1,38,40,42,44,46,48,50,52,54,56,58,60,62,64,66,68,70,72,74,76,-1,78,80,82,84,86,88,90,92,94,96,98,100,102,104,106,108,110,112,114,116,118,-1,-1,-1,-1,-1,-1,-1,-1,-1,-1,-1,-1,-1,-1,-1,-1,-1,-1,-1,-1,-1,-1,-1,-1,-1,-1,-1,-1,-1,-1,-1,-1,-1,-1,-1,-1,-1,-1,-1,-1,-1,-1,-1,-1,-1,-1,-1,-1,-1,-1,-1,-1,-1,-1,-1,-1,-1,-1],"split_conditions":[6E0,4E0,9E0,1E0,1E0,1E0,1E0,-7.795733E-1,3.519524E0,2.0864916E0,4E0,1E0,4E0,1.1E1,4E0,4E0,2E0,-1.4960896E0,-2.3664713E-1,1E0,5E0,2E0,1E0,8E0,6.5345913E-1,2E0,1E0,1E0,1E0,1E0,1E0,3E0,2E0,1.3699753E0,1E0,3E0,3E0,-7.795733E-1,5E0,7.65439E-2,3.519524E0,-2.2126057E0,3E0,-6.305709E-2,-7.795733E-1,-7.795733E-1,-1.4960896E0,7E0,2.0864916E0,1E0,3E0,7E0,2.8030078E0,2.0864916E0,6.5345913E-1,-1.4960896E0,1.3699753E0,1.2E1,-2.929122E0,1.2E1,2.0864916E0,1.625133E-1,-3.692109E-1,2.6062998E-1,1.6104168E-1,2.5955674E-1,2.2244619E-1,2.2340764E-1,1.6573235E-2,1.2077506E-2,-2.7173206E-1,-5.14895E-3,8.9146644E-2,1.577205E-1,2.5548005E-1,9.525869E-2,2.2843238E-2,4.83899E-2,-1.4328373E-2,-2.8396082E-1,1.262637E-1,-3.4473506E-3,-1.7546025E-1,1.8098938E-1,2.3837991E-1,-1.6882338E-1,6.8458407E-3,1.0051758E-1,1.956624E-1,-4.4703722E-2,1.4349602E-1,1.5415342E-2,-1.0292775E-1,3.2248978E-2,1.9227155E-1,7.296219E-2,-5.3198636E-2,-2.7885844E-3,-6.266788E-2,1.5481137E-1,9.66219E-2,-1.4018313E-2,-3.8559914E-1,1.0045745E-1,3.683343E-3,-8.513876E-2,4.490297E-2,-1.3276345E-1,4.077111E-2,-4.9953263E-2,-2.1855548E-1,-5.7778573E-3,-4.0617384E-2,-2.1073188E-1,-5.720206E-2,3.656898E-2,-1.8540584E-3,-3.251719E-2,-1.9578922E-1],"split_indices":[0,0,0,3,4,4,4,1,1,1,4,3,4,0,4,4,0,1,0,3,0,4,3,0,1,4,3,2,2,3,3,4,0,1,2,4,4,1,0,0,1,1,4,1,1,1,1,0,1,3,4,0,1,1,1,1,1,0,1,0,1,0,0,0,0,0,0,0,0,0,0,0,0,0,0,0,0,0,0,0,0,0,0,0,0,0,0,0,0,0,0,0,0,0,0,0,0,0,0,0,0,0,0,0,0,0,0,0,0,0,0,0,0,0,0,0,0,0,0],"split_type":[0,0,0,0,0,0,0,0,0,0,0,0,0,0,0,0,0,0,0,0,0,0,0,0,0,0,0,0,0,0,0,0,0,0,0,0,0,0,0,0,0,0,0,0,0,0,0,0,0,0,0,0,0,0,0,0,0,0,0,0,0,0,0,0,0,0,0,0,0,0,0,0,0,0,0,0,0,0,0,0,0,0,0,0,0,0,0,0,0,0,0,0,0,0,0,0,0,0,0,0,0,0,0,0,0,0,0,0,0,0,0,0,0,0,0,0,0,0,0],"sum_hessian":[2.048411E4,3.5433542E3,1.6940756E4,2.0030531E3,1.540301E3,5.5699604E3,1.1370796E4,1.9451953E3,5.7857834E1,2.9928482E2,1.2410162E3,5.6621747E2,5.003743E3,8.378347E2,1.0532961E4,2.5212083E2,1.6930745E3,5.6415424E1,1.4424099E0,2.923345E2,6.9503016E0,8.0464404E2,4.3637216E2,5.4009705E2,2.6120398E1,3.7235386E3,1.2802043E3,4.4887173E2,3.88963E2,7.6188013E3,2.9141597E3,1.7475626E2,7.7364586E1,8.268509E2,8.662236E2,9.484919E0,4.6930504E1,2.8542514E2,6.909367E0,2.8636801E0,4.0866213E0,4.7587833E2,3.2876572E2,4.241929E2,1.2179237E1,3.3714117E2,2.029559E2,1.3765584E1,1.2354813E1,1.937997E3,1.7855417E3,1.2209205E3,5.9283817E1,4.3688205E2,1.1989673E1,3.7043863E2,1.8524403E1,6.5718037E3,1.0469977E3,2.720812E3,1.9334756E2,1.6438791E2,1.0368344E1,3.3251102E1,4.4113483E1,7.417685E2,8.508242E1,8.51376E2,1.4847563E1,6.214909E0,3.2700098E0,3.3173416E1,1.3757089E1,2.5655802E1,2.5976935E2,2.716042E0,4.193325E0,2.4075446E0,1.6790769E0,7.7811437E0,4.680972E2,2.4386116E2,8.490456E1,1.468149E2,2.7737802E2,1.7910213E0,1.0388216E1,2.2907068E1,3.142341E2,4.7516766E0,1.9820422E2,2.8355145E0,1.093007E1,1.1277945E1,1.0768675E0,1.799501E3,1.3849594E2,1.1863064E3,5.9923535E2,2.8677032E2,9.341502E2,5.8234535E1,1.049281E0,4.2472775E2,1.215429E1,5.9025946E0,6.0870786E0,5.432081E0,3.6500653E2,1.5419705E1,3.1046977E0,4.813221E3,1.7585822E3,8.5853195E0,1.0384124E3,2.0625728E3,6.5823926E2,1.842622E2,9.085348E0],"tree_param":{"num_deleted":"0","num_feature":"5","num_nodes":"119","size_leaf_vector":"1"}},{"base_weights":[1.13400444E-1,5.25915E-1,3.905158E-2,6.591361E-1,3.6631566E-1,1.3935249E-1,-7.825792E-3,6.841402E-1,-2.6035042E-2,7.288482E-1,2.883955E-1,4.5523372E-1,1.07221544E-1,9.816987E-3,-1.655698E-1,4.297779E-1,7.251189E-1,8.5933495E-4,-1.8355682E-1,7.4488556E-1,1.4414844E-1,1.2911113E-1,6.2793195E-1,4.82583E-1,-2.5417566E-2,5.4337133E-2,2.722524E-1,1.771625E-1,-3.6854174E-3,-1.1599993E-1,-2.1047285E-1,5.1709497E-1,2.6150274E-1,8.3687574E-1,6.7873E-1,-2.5606498E-1,5.8905464E-2,2.3845609E-1,7.6589257E-1,6.330379E-2,6.631886E-2,3.1585145E-1,-1.07852235E-1,6.532192E-1,-8.040014E-2,5.468281E-1,3.7841988E-1,4.4247244E-2,-1.7804131E-1,1.5919015E-1,-5.2731164E-2,2.8559512E-1,-3.8728124E-1,2.2585396E-1,4.2406324E-2,-3.173448E-2,6.5701246E-2,-3.5674772E-1,-9.803454E-2,-2.17988E-1,4.5947943E-2,1.0717606E-1,1.8937226E-1,1.841973E-1,5.400708E-2,2.1264192E-1,2.60878E-1,1.5889125E-1,2.4197988E-1,9.01468E-3,-1.968752E-1,-1.0112617E-1,3.535146E-2,2.9188516E-3,9.599328E-2,2.3434547E-1,5.548162E-2,3.953416E-2,-1.1536092E-2,-1.6227111E-1,1.01127036E-1,-2.4095033E-3,-1.0979008E-1,1.55028E-1,2.1809693E-1,-1.2842943E-1,4.9986024E-3,1.6662171E-1,-5.102587E-2,-3.2381155E-2,1.1783185E-1,-3.823021E-2,7.0456296E-2,7.79364E-2,9.742721E-3,-1.9486872E-3,-4.2616703E-2,1.0464851E-1,5.9878856E-2,2.9578064E-2,-1.4080109E-1,9.219949E-2,5.351295E-2,-1.7031963E-1,1.5882486E-2,1.7810954E-3,-2.456853E-2,3.2929316E-2,4.793589E-3,-1.5204382E-1,4.1071516E-3,-2.4004357E-2,-8.773826E-2,-2.1475373E-1,-6.4243376E-2,-4.367981E-2,1.5076174E-1],"categories":[],"categories_nodes":[],"categories_segments":[],"categories_sizes":[],"default_left":[0,0,0,0,0,0,0,0,0,0,0,0,0,0,0,0,0,0,0,0,0,0,0,0,0,0,0,0,0,0,0,0,0,0,0,0,0,0,0,0,0,0,0,0,0,0,0,0,0,0,0,0,0,0,0,0,0,0,0,0,0,0,0,0,0,0,0,0,0,0,0,0,0,0,0,0,0,0,0,0,0,0,0,0,0,0,0,0,0,0,0,0,0,0,0,0,0,0,0,0,0,0,0,0,0,0,0,0,0,0,0,0,0,0,0,0,0],"id":7,"left_children":[1,3,5,7,9,11,13,15,17,19,21,23,25,27,29,31,33,35,-1,37,39,41,43,45,47,49,51,53,55,57,59,61,63,65,67,69,71,73,75,-1,77,79,81,83,85,87,89,91,-1,93,95,97,99,101,103,105,107,109,111,113,115,-1,-1,-1,-1,-1,-1,-1,-1,-1,-1,-1,-1,-1,-1,-1,-1,-1,-1,-1,-1,-1,-1,-1,-1,-1,-1,-1,-1,-1,-1,-1,-1,-1,-1,-1,-1,-1,-1,-1,-1,-1,-1,-1,-1,-1,-1,-1,-1,-1,-1,-1,-1,-1,-1,-1,-1],"loss_changes":[6.019072E2,6.3480713E1,7.819252E1,2.7981445E1,3.8370575E1,5.3711548E1,3.154501E1,1.6103271E1,9.21134E-1,2.1521301E0,6.080532E1,6.4368668E0,4.1956795E1,2.30368E1,2.5134811E0,3.1114082E0,6.4558716E0,8.6314505E-1,0E0,2.309845E0,2.5934517E-2,3.3999302E1,6.48703E0,2.8879013E0,1.1051002E0,4.0909096E1,1.03787155E1,4.9849625E0,1.8364286E1,2.3186078E0,1.1605263E0,2.4100304E0,2.1155567E0,1.0308533E0,1.7926483E1,1.2410547E0,1.1411945E0,1.979565E-1,1.8457184E0,0E0,3.9387383E-2,7.9981766E0,8.732402E0,3.1170654E0,4.5507094E-1,1.839653E0,1.2966251E0,8.5503346E-1,0E0,2.3458076E1,7.446788E0,6.152931E0,9.8566437E-1,2.1072826E0,1.3366728E0,1.269766E1,5.949548E0,2.0864754E0,1.7555547E0,9.569206E-1,1.6321635E0,0E0,0E0,0E0,0E0,0E0,0E0,0E0,0E0,0E0,0E0,0E0,0E0,0E0,0E0,0E0,0E0,0E0,0E0,0E0,0E0,0E0,0E0,0E0,0E0,0E0,0E0,0E0,0E0,0E0,0E0,0E0,0E0,0E0,0E0,0E0,0E0,0E0,0E0,0E0,0E0,0E0,0E0,0E0,0E0,0E0,0E0,0E0,0E0,0E0,0E0,0E0,0E0,0E0,0E0,0E0,0E0],"parents":[2147483647,0,0,1,1,2,2,3,3,4,4,5,5,6,6,7,7,8,8,9,9,10,10,11,11,12,12,13,13,14,14,15,15,16,16,17,17,19,19,20,20,21,21,22,22,23,23,24,24,25,25,26,26,27,27,28,28,29,29,30,30,31,31,32,32,33,33,34,34,35,35,36,36,37,37,38,38,40,40,41,41,42,42,43,43,44,44,45,45,46,46,47,47,49,49,50,50,51,51,52,52,53,53,54,54,55,55,56,56,57,57,58,58,59,59,60,60],"right_children":[2,4,6,8,10,12,14,16,18,20,22,24,26,28,30,32,34,36,-1,38,40,42,44,46,48,50,52,54,56,58,60,62,64,66,68,70,72,74,76,-1,78,80,82,84,86,88,90,92,-1,94,96,98,100,102,104,106,108,110,112,114,116,-1,-1,-1,-1,-1,-1,-1,-1,-1,-1,-1,-1,-1,-1,-1,-1,-1,-1,-1,-1,-1,-1,-1,-1,-1,-1,-1,-1,-1,-1,-1,-1,-1,-1,-1,-1,-1,-1,-1,-1,-1,-1,-1,-1,-1,-1,-1,-1,-1,-1,-1,-1,-1,-1,-1,-1],"split_conditions":[6E0,4E0,9E0,1E0,1E0,1E0,1E0,-7.795733E-1,3.519524E0,2.0864916E0,4E0,1E0,4E0,1E0,1.1E1,3E0,1E0,-1.4960896E0,-1.8355682E-1,-1.4960896E0,5E0,2E0,1E0,8E0,1E0,2E0,1E0,1.2E1,4E0,-1.4960896E0,2.8030078E0,-1.4960896E0,1E0,-6.305709E-2,4E0,3E0,1E0,-2.2126057E0,1E0,6.330379E-2,3.519524E0,-2.2126057E0,3E0,-6.305709E-2,-7.795733E-1,1E0,-1.4960896E0,6.5345913E-1,-1.7804131E-1,8E0,3E0,8E0,7E0,1E1,-1.4960896E0,2E0,1.1E1,1E0,2.0864916E0,-2.929122E0,1E0,1.0717606E-1,1.8937226E-1,1.841973E-1,5.400708E-2,2.1264192E-1,2.60878E-1,1.5889125E-1,2.4197988E-1,9.01468E-3,-1.968752E-1,-1.0112617E-1,3.535146E-2,2.9188516E-3,9.599328E-2,2.3434547E-1,5.548162E-2,3.953416E-2,-1.1536092E-2,-1.6227111E-1,1.01127036E-1,-2.4095033E-3,-1.0979008E-1,1.55028E-1,2.1809693E-1,-1.2842943E-1,4.9986024E-3,1.6662171E-1,-5.102587E-2,-3.2381155E-2,1.1783185E-1,-3.823021E-2,7.0456296E-2,7.79364E-2,9.742721E-3,-1.9486872E-3,-4.2616703E-2,1.0464851E-1,5.9878856E-2,2.9578064E-2,-1.4080109E-1,9.219949E-2,5.351295E-2,-1.7031963E-1,1.5882486E-2,1.7810954E-3,-2.456853E-2,3.2929316E-2,4.793589E-3,-1.5204382E-1,4.1071516E-3,-2.4004357E-2,-8.773826E-2,-2.1475373E-1,-6.4243376E-2,-4.367981E-2,1.5076174E-1],"split_indices":[0,0,0,3,4,4,2,1,1,1,4,3,4,4,0,0,4,1,0,1,0,4,3,0,2,4,2,0,4,1,1,1,4,1,4,4,0,1,3,0,1,1,4,1,1,2,1,1,0,0,4,0,0,0,1,4,0,3,1,1,3,0,0,0,0,0,0,0,0,0,0,0,0,0,0,0,0,0,0,0,0,0,0,0,0,0,0,0,0,0,0,0,0,0,0,0,0,0,0,0,0,0,0,0,0,0,0,0,0,0,0,0,0,0,0,0,0],"split_type":[0,0,0,0,0,0,0,0,0,0,0,0,0,0,0,0,0,0,0,0,0,0,0,0,0,0,0,0,0,0,0,0,0,0,0,0,0,0,0,0,0,0,0,0,0,0,0,0,0,0,0,0,0,0,0,0,0,0,0,0,0,0,0,0,0,0,0,0,0,0,0,0,0,0,0,0,0,0,0,0,0,0,0,0,0,0,0,0,0,0,0,0,0,0,0,0,0,0,0,0,0,0,0,0,0,0,0,0,0,0,0,0,0,0,0,0,0],"sum_hessian":[1.9624951E4,2.9959966E3,1.6628955E4,1.6312373E3,1.3647593E3,5.295817E3,1.1333138E4,1.5738055E3,5.7431686E1,2.3996077E2,1.1247986E3,4.8773135E2,4.8080854E3,1.019394E4,1.1391971E3,2.1995998E2,1.3538456E3,5.5865498E1,1.5661885E0,2.332881E2,6.6726656E0,7.6656537E2,3.582332E2,4.6146954E2,2.626181E1,3.6422498E3,1.1658358E3,7.6019147E2,9.433749E3,5.431645E2,5.960326E2,1.4345107E2,7.6508896E1,3.9212485E2,9.6172076E2,9.666802E0,4.6198696E1,9.783449E0,2.2350465E2,2.6687238E0,4.003942E0,4.285283E2,3.3803708E2,3.459603E2,1.2272902E1,2.8279758E2,1.7867198E2,2.4214325E1,2.047484E0,1.8399156E3,1.8023341E3,1.1432738E3,2.256205E1,5.579216E2,2.0226991E2,6.7184185E3,2.71533E3,3.640859E1,5.0675592E2,5.792071E2,1.6825468E1,6.1483677E1,8.19674E1,1.3137775E1,6.337112E1,8.4403E1,3.0772183E2,4.4638718E2,5.153336E2,6.176097E0,3.4907055E0,5.3733225E0,4.082537E1,2.8648446E0,6.918605E0,2.1744868E2,6.055964E0,2.3056183E0,1.6983236E0,9.7742195E0,4.1875406E2,2.4450925E2,9.3527824E1,1.2420789E2,2.217524E2,1.9340725E0,1.0338829E1,2.7967664E2,3.1209345E0,4.9347625E0,1.7373721E2,1.2914008E1,1.1300318E1,1.0250691E3,8.148466E2,1.188318E3,6.140162E2,6.5708014E2,4.8619357E2,3.230691E0,1.933136E1,2.0339517E2,3.545264E2,2.5355923E0,1.9973433E2,3.8373704E3,2.881048E3,1.4389529E3,1.2763772E3,2.5649714E1,1.0758877E1,4.6506393E2,4.169198E1,3.018011E0,5.761891E2,1.2332784E1,4.492684E0],"tree_param":{"num_deleted":"0","num_feature":"5","num_nodes":"117","size_leaf_vector":"1"}},{"base_weights":[8.523913E-2,5.169076E-1,3.7433684E-2,3.5081905E-1,6.266716E-1,1.5683918E-1,6.990437E-3,2.4056546E-1,6.076744E-1,6.525909E-1,2.977054E-2,4.7430107E-1,1.2052648E-1,2.3189424E-2,-1.188867E-1,4.537125E-1,-2.6022184E-1,2.2832914E-1,6.711257E-1,2.4564381E-1,5.864035E-1,8.431097E-2,-3.9035243E-1,4.9384233E-1,-5.5933726E-1,5.9242986E-2,3.1033808E-1,3.6526136E-2,-1.06537774E-1,-1.0985039E-1,-3.7664032E-1,5.3723294E-1,2.3591657E-1,4.8372003E-1,-3.2262385E-1,7.045533E-1,-1.3855665E-2,7.792823E-1,5.536253E-1,4.3225724E-1,7.3824084E-1,-7.829286E-2,2.043146E-1,-4.5033085E-1,-3.958159E-2,1.7417583E-1,5.201208E-1,-4.37668E-2,-3.196736E-1,1.9795544E-1,-8.281282E-2,1.4033595E-1,3.8458094E-1,1.7660484E-1,2.4932386E-2,-2.29714E-1,-8.965634E-2,-1.6093834E-1,-8.483695E-2,-4.4221517E-1,1.6357094E-1,1.6755639E-1,-1.5085774E-2,1.6353291E-1,3.179437E-2,1.9360583E-1,-5.143512E-2,-6.1588384E-2,-1.8704604E-1,4.8158538E-2,2.278053E-1,-1.5460642E-1,7.619175E-2,2.4025585E-1,-1.8106129E-2,1.6905269E-1,6.428505E-2,1.80365E-1,-4.4062644E-2,2.2529636E-1,8.2032725E-2,2.3682488E-2,-2.7474195E-1,1.5996253E-2,1.6802026E-1,-2.6134968E-1,-2.753649E-3,8.219467E-2,-8.104604E-3,1.6072944E-1,6.748771E-2,4.643679E-2,-6.976866E-2,6.998247E-2,-7.679301E-2,-9.9748075E-3,-5.3189162E-2,7.932094E-2,-2.465856E-3,1.22281164E-1,-1.759546E-2,8.2009286E-2,3.3144087E-2,1.342099E-2,-1.3986523E-2,-5.135178E-2,-1.3418336E-1,-3.5554137E-2,-6.7276135E-3,-3.139636E-2,-7.909766E-2,-6.273141E-3,-3.372593E-2,-7.717822E-2,-1.5853702E-1,-4.8468173E-2,2.2713783E-1],"categories":[],"categories_nodes":[],"categories_segments":[],"categories_sizes":[],"default_left":[0,0,0,0,0,0,0,0,0,0,0,0,0,0,0,0,0,0,0,0,0,0,0,0,0,0,0,0,0,0,0,0,0,0,0,0,0,0,0,0,0,0,0,0,0,0,0,0,0,0,0,0,0,0,0,0,0,0,0,0,0,0,0,0,0,0,0,0,0,0,0,0,0,0,0,0,0,0,0,0,0,0,0,0,0,0,0,0,0,0,0,0,0,0,0,0,0,0,0,0,0,0,0,0,0,0,0,0,0,0,0,0,0,0,0,0,0],"id":8,"left_children":[1,3,5,7,9,11,13,15,17,19,21,23,25,27,29,31,33,35,37,-1,39,41,43,45,47,49,51,53,55,57,59,61,63,65,67,69,71,73,75,77,79,81,83,85,-1,87,89,91,-1,93,95,97,99,101,103,105,107,109,111,113,115,-1,-1,-1,-1,-1,-1,-1,-1,-1,-1,-1,-1,-1,-1,-1,-1,-1,-1,-1,-1,-1,-1,-1,-1,-1,-1,-1,-1,-1,-1,-1,-1,-1,-1,-1,-1,-1,-1,-1,-1,-1,-1,-1,-1,-1,-1,-1,-1,-1,-1,-1,-1,-1,-1,-1,-1],"loss_changes":[3.9171368E2,3.4283142E1,6.2127365E1,2.1244743E1,1.7590607E1,3.9970245E1,2.777523E1,5.6707123E1,5.2913437E0,1.15208435E1,1.1423193E0,7.468155E0,3.624141E1,2.0883173E1,3.5759544E0,6.644417E0,7.5333834E0,3.9229522E0,2.0247116E0,0E0,1.8023346E1,8.682476E-1,2.9563367E-2,2.849411E0,1.8000772E0,4.647282E1,9.545311E0,1.7768658E1,2.3192606E0,1.9055805E0,1.9211864E0,3.3834915E0,4.159079E0,1.4553525E0,5.0687075E0,2.1965742E-1,3.283527E0,1.8265572E0,2.015152E-1,3.837726E1,2.1254272E0,2.6097648E0,1.3349044E0,7.801023E-1,0E0,5.7143027E-1,1.3704376E0,2.0649634E-1,0E0,1.91888E1,5.451976E0,4.2921214E0,5.4199905E0,5.3210373E0,1.4326428E1,1.642735E0,1.9205203E0,2.8199844E0,1.779171E0,6.107359E-1,1.3534803E0,0E0,0E0,0E0,0E0,0E0,0E0,0E0,0E0,0E0,0E0,0E0,0E0,0E0,0E0,0E0,0E0,0E0,0E0,0E0,0E0,0E0,0E0,0E0,0E0,0E0,0E0,0E0,0E0,0E0,0E0,0E0,0E0,0E0,0E0,0E0,0E0,0E0,0E0,0E0,0E0,0E0,0E0,0E0,0E0,0E0,0E0,0E0,0E0,0E0,0E0,0E0,0E0,0E0,0E0,0E0,0E0],"parents":[2147483647,0,0,1,1,2,2,3,3,4,4,5,5,6,6,7,7,8,8,9,9,10,10,11,11,12,12,13,13,14,14,15,15,16,16,17,17,18,18,20,20,21,21,22,22,23,23,24,24,25,25,26,26,27,27,28,28,29,29,30,30,31,31,32,32,33,33,34,34,35,35,36,36,37,37,38,38,39,39,40,40,41,41,42,42,43,43,45,45,46,46,47,47,49,49,50,50,51,51,52,52,53,53,54,54,55,55,56,56,57,57,58,58,59,59,60,60],"right_children":[2,4,6,8,10,12,14,16,18,20,22,24,26,28,30,32,34,36,38,-1,40,42,44,46,48,50,52,54,56,58,60,62,64,66,68,70,72,74,76,78,80,82,84,86,-1,88,90,92,-1,94,96,98,100,102,104,106,108,110,112,114,116,-1,-1,-1,-1,-1,-1,-1,-1,-1,-1,-1,-1,-1,-1,-1,-1,-1,-1,-1,-1,-1,-1,-1,-1,-1,-1,-1,-1,-1,-1,-1,-1,-1,-1,-1,-1,-1,-1,-1,-1,-1,-1,-1,-1,-1,-1,-1,-1,-1,-1,-1,-1,-1,-1,-1,-1],"split_conditions":[5E0,-6.305709E-2,8E0,4E0,1E0,1E0,1E0,2E0,-1.4960896E0,1E0,1E0,1E0,4E0,1E0,2.8030078E0,4E0,1E0,2E0,3E0,2.4564381E-1,4E0,3E0,3E0,-7.795733E-1,6.5345913E-1,2E0,-6.305709E-2,1E0,-7.795733E-1,-6.305709E-2,5.6690726E0,1E0,1E0,3E0,3E0,-2.929122E0,3E0,1E0,1E0,2E0,2.0864916E0,2.0864916E0,1.3699753E0,4E0,-3.958159E-2,7E0,1E0,7E0,-3.196736E-1,1E0,3E0,7E0,1E0,1E1,1.2E1,1.2E1,3E0,3E0,6.5345913E-1,1E1,1E0,1.6755639E-1,-1.5085774E-2,1.6353291E-1,3.179437E-2,1.9360583E-1,-5.143512E-2,-6.1588384E-2,-1.8704604E-1,4.8158538E-2,2.278053E-1,-1.5460642E-1,7.619175E-2,2.4025585E-1,-1.8106129E-2,1.6905269E-1,6.428505E-2,1.80365E-1,-4.4062644E-2,2.2529636E-1,8.2032725E-2,2.3682488E-2,-2.7474195E-1,1.5996253E-2,1.6802026E-1,-2.6134968E-1,-2.753649E-3,8.219467E-2,-8.104604E-3,1.6072944E-1,6.748771E-2,4.643679E-2,-6.976866E-2,6.998247E-2,-7.679301E-2,-9.9748075E-3,-5.3189162E-2,7.932094E-2,-2.465856E-3,1.22281164E-1,-1.759546E-2,8.2009286E-2,3.3144087E-2,1.342099E-2,-1.3986523E-2,-5.135178E-2,-1.3418336E-1,-3.5554137E-2,-6.7276135E-3,-3.139636E-2,-7.909766E-2,-6.273141E-3,-3.372593E-2,-7.717822E-2,-1.5853702E-1,-4.8468173E-2,2.2713783E-1],"split_indices":[0,1,0,4,3,4,3,4,1,4,2,2,4,2,1,0,0,0,0,0,4,0,4,1,1,4,1,4,1,1,1,3,4,4,4,1,0,3,3,4,1,1,1,0,0,0,3,0,0,3,4,0,3,0,0,0,4,4,1,0,2,0,0,0,0,0,0,0,0,0,0,0,0,0,0,0,0,0,0,0,0,0,0,0,0,0,0,0,0,0,0,0,0,0,0,0,0,0,0,0,0,0,0,0,0,0,0,0,0,0,0,0,0,0,0,0,0],"split_type":[0,0,0,0,0,0,0,0,0,0,0,0,0,0,0,0,0,0,0,0,0,0,0,0,0,0,0,0,0,0,0,0,0,0,0,0,0,0,0,0,0,0,0,0,0,0,0,0,0,0,0,0,0,0,0,0,0,0,0,0,0,0,0,0,0,0,0,0,0,0,0,0,0,0,0,0,0,0,0,0,0,0,0,0,0,0,0,0,0,0,0,0,0,0,0,0,0,0,0,0,0,0,0,0,0,0,0,0,0,0,0,0,0,0,0,0,0],"sum_hessian":[1.8981898E4,1.8915918E3,1.7090307E4,7.543497E2,1.1372422E3,3.4712207E3,1.3619086E4,5.291513E2,2.2519836E2,1.0898253E3,4.7416843E1,3.550606E2,3.1161602E3,1.2067012E4,1.5520743E3,3.712377E2,1.5791362E2,3.2929123E1,1.9226924E2,3.0713095E2,7.8269434E2,4.267596E1,4.740882E0,3.4898514E2,6.0754504E0,2.3566067E3,7.5955334E2,1.0942752E4,1.1242603E3,1.5008827E3,5.119166E1,2.6727594E2,1.0396175E2,1.1698252E1,1.4621538E2,1.0457225E1,2.2471897E1,9.718258E1,9.508667E1,3.90303E2,3.9239136E2,1.8269089E1,2.4406872E1,3.2450297E0,1.4958521E0,2.7088839E1,3.218963E2,3.5482588E0,2.5271919E0,1.1921354E3,1.1644714E3,2.3175905E2,5.277943E2,8.3536926E2,1.0107383E4,1.3398978E2,9.902705E2,4.9153265E2,1.00935004E3,4.5812057E1,5.3796053E0,2.5797766E2,9.298283E0,2.9816174E1,7.414557E1,9.395368E0,2.3028836E0,1.0640309E2,3.9812283E1,1.3165128E0,9.140712E0,7.5014644E0,1.4970433E1,9.4793495E1,2.3890827E0,9.175368E1,3.3329952E0,3.0212213E2,8.8180885E1,3.8131802E2,1.1073323E1,1.614397E1,2.12512E0,1.7941687E1,6.465185E0,1.1618948E0,2.083135E0,1.786474E1,9.224097E0,3.0492004E2,1.6976284E1,1.8172151E0,1.7310436E0,1.1065253E3,8.5610115E1,7.6469104E2,3.997804E2,1.25863464E2,1.0589559E2,5.018091E2,2.5985184E1,3.37855E2,4.9751422E2,7.9166445E3,2.1907378E3,1.0698842E2,2.700135E1,6.923369E2,2.979336E2,3.1884583E2,1.7268683E2,3.0476904E2,7.0458093E2,1.5835055E1,2.9977001E1,3.9459453E0,1.4336604E0],"tree_param":{"num_deleted":"0","num_feature":"5","num_nodes":"117","size_leaf_vector":"1"}},{"base_weights":[6.3550375E-2,4.372139E-1,2.7273113E-2,2.8432748E-1,5.4661196E-1,9.332405E-2,-5.6930454E-3,1.8986523E-1,5.275076E-1,5.7402474E-1,1.4968885E-2,3.3416846E-1,7.128284E-2,-1.118335E-1,4.3686545E-3,3.7280643E-1,-1.6801327E-1,1.8431054E-1,5.933011E-1,2.2825095E-1,5.0474584E-1,1.8957783E-1,-7.37789E-2,3.584913E-1,-2.6183758E-2,3.4353703E-2,1.9704272E-1,1.7274337E-2,-1.3105747E-1,1.3164882E-2,-7.4370764E-2,4.5300642E-1,1.8172966E-1,4.0933266E-1,-2.0804642E-1,6.3162196E-1,-8.241232E-3,7.152687E-1,4.696206E-1,3.5427964E-1,6.674217E-1,8.0088556E-1,-6.5495774E-2,-4.8332122E-1,5.050621E-2,4.1734987E-1,2.4180944E-1,-7.4347645E-2,1.9205005E-1,9.3142346E-2,-2.1315007E-2,3.3915383E-1,1.3540737E-1,8.255161E-2,-2.5316894E-1,-9.166644E-2,-2.0485292E-1,3.0357035E-2,-3.2054555E-2,-5.924385E-3,-9.258121E-2,1.4073059E-1,-7.519479E-2,-1.2780555E-1,6.8355896E-2,-1.2120597E-1,1.6047254E-1,-8.0370136E-2,2.240506E-2,4.1141614E-2,2.0674397E-1,-9.943672E-2,5.9049416E-2,2.2203061E-1,-1.4123676E-2,1.4383091E-1,5.1542368E-2,1.552135E-1,-2.9518489E-2,2.0451626E-1,6.4836904E-2,7.30731E-2,2.652597E-1,-1.4455746E-1,5.193042E-2,-3.441528E-2,-1.9322105E-1,-2.3292903E-2,6.92925E-2,1.2824471E-1,-1.2062033E-1,-4.608059E-2,7.6717556E-2,-2.3107207E-3,-2.4667372E-1,-1.01324126E-1,3.382231E-2,-1.7130328E-2,8.232399E-3,-2.0503182E-2,1.1468998E-1,4.2571172E-2,-3.0621108E-1,3.8245232E-3,8.1847936E-2,3.5604794E-4,-1.7368314E-1,-5.1403925E-2,-1.8168382E-2,-8.312856E-2,-3.134814E-2,1.230478E-2,-1.9550111E-2,1.3462255E-3,-1.7335655E-2,-3.7266277E-2,1.0749034E-2,-2.8322263E-2,1.2920612E-1],"categories":[],"categories_nodes":[],"categories_segments":[],"categories_sizes":[],"default_left":[0,0,0,0,0,0,0,0,0,0,0,0,0,0,0,0,0,0,0,0,0,0,0,0,0,0,0,0,0,0,0,0,0,0,0,0,0,0,0,0,0,0,0,0,0,0,0,0,0,0,0,0,0,0,0,0,0,0,0,0,0,0,0,0,0,0,0,0,0,0,0,0,0,0,0,0,0,0,0,0,0,0,0,0,0,0,0,0,0,0,0,0,0,0,0,0,0,0,0,0,0,0,0,0,0,0,0,0,0,0,0,0,0,0,0,0,0,0,0],"id":9,"left_children":[1,3,5,7,9,11,13,15,17,19,21,23,25,27,29,31,33,35,37,-1,39,41,43,45,47,49,51,53,55,57,59,61,63,65,67,69,71,73,75,77,79,81,83,85,87,89,91,93,-1,95,97,99,101,103,105,107,109,111,113,115,117,-1,-1,-1,-1,-1,-1,-1,-1,-1,-1,-1,-1,-1,-1,-1,-1,-1,-1,-1,-1,-1,-1,-1,-1,-1,-1,-1,-1,-1,-1,-1,-1,-1,-1,-1,-1,-1,-1,-1,-1,-1,-1,-1,-1,-1,-1,-1,-1,-1,-1,-1,-1,-1,-1,-1,-1,-1,-1],"loss_changes":[2.5084468E2,2.723413E1,3.6732536E1,1.5637955E1,1.3887146E1,2.9790977E1,1.20191145E1,3.247101E1,4.2060127E0,1.1350525E1,7.543851E-1,4.13435E0,2.3896E1,2.4209108E0,7.121283E0,4.942108E0,3.9712176E0,2.7781565E0,2.076477E0,0E0,1.6025757E1,2.6067514E0,1.673483E0,2.9273262E0,1.0325477E0,1.3026382E1,1.0185295E1,2.266081E0,2.447154E0,7.1907015E0,1.2872739E0,2.7255554E0,2.8610106E0,1.3640724E0,2.691969E0,1.8143916E-1,1.622454E0,1.5229683E0,1.5825462E-1,2.5690434E1,1.9054871E0,1.2070179E-2,1.3234856E0,3.7865806E-1,6.1370015E-1,2.5939102E0,8.658781E-1,1.4648985E0,0E0,1.6385721E1,3.5695345E0,6.2270775E0,6.276457E0,1.3672557E0,2.070131E0,1.3648992E0,2.105626E0,6.8256702E0,2.3960729E0,1.0821798E0,8.2048655E-1,0E0,0E0,0E0,0E0,0E0,0E0,0E0,0E0,0E0,0E0,0E0,0E0,0E0,0E0,0E0,0E0,0E0,0E0,0E0,0E0,0E0,0E0,0E0,0E0,0E0,0E0,0E0,0E0,0E0,0E0,0E0,0E0,0E0,0E0,0E0,0E0,0E0,0E0,0E0,0E0,0E0,0E0,0E0,0E0,0E0,0E0,0E0,0E0,0E0,0E0,0E0,0E0,0E0,0E0,0E0,0E0,0E0,0E0],"parents":[2147483647,0,0,1,1,2,2,3,3,4,4,5,5,6,6,7,7,8,8,9,9,10,10,11,11,12,12,13,13,14,14,15,15,16,16,17,17,18,18,20,20,21,21,22,22,23,23,24,24,25,25,26,26,27,27,28,28,29,29,30,30,31,31,32,32,33,33,34,34,35,35,36,36,37,37,38,38,39,39,40,40,41,41,42,42,43,43,44,44,45,45,46,46,47,47,49,49,50,50,51,51,52,52,53,53,54,54,55,55,56,56,57,57,58,58,59,59,60,60],"right_children":[2,4,6,8,10,12,14,16,18,20,22,24,26,28,30,32,34,36,38,-1,40,42,44,46,48,50,52,54,56,58,60,62,64,66,68,70,72,74,76,78,80,82,84,86,88,90,92,94,-1,96,98,100,102,104,106,108,110,112,114,116,118,-1,-1,-1,-1,-1,-1,-1,-1,-1,-1,-1,-1,-1,-1,-1,-1,-1,-1,-1,-1,-1,-1,-1,-1,-1,-1,-1,-1,-1,-1,-1,-1,-1,-1,-1,-1,-1,-1,-1,-1,-1,-1,-1,-1,-1,-1,-1,-1,-1,-1,-1,-1,-1,-1,-1,-1,-1,-1],"split_conditions":[5E0,-6.305709E-2,9E0,4E0,1E0,1E0,-7.795733E-1,2E0,-1.4960896E0,1E0,6.5345913E-1,1E0,4E0,-2.2126057E0,1E0,4E0,1E0,2E0,3E0,2.2825095E-1,4E0,2E0,2E0,8E0,2.0864916E0,2E0,7E0,1E0,3E0,1.2E1,1E1,1E0,-2.2126057E0,-2.2126057E0,1E0,-2.929122E0,3E0,1E0,1E0,2E0,2.0864916E0,1E0,3E0,2E0,1.3699753E0,3.519524E0,-1.4960896E0,1.3699753E0,1.9205005E-1,-1.4960896E0,8E0,-7.795733E-1,3.519524E0,1.2E1,1.1E1,-1.4960896E0,4E0,1E0,6.5345913E-1,-6.305709E-2,6.385589E0,1.4073059E-1,-7.519479E-2,-1.2780555E-1,6.8355896E-2,-1.2120597E-1,1.6047254E-1,-8.0370136E-2,2.240506E-2,4.1141614E-2,2.0674397E-1,-9.943672E-2,5.9049416E-2,2.2203061E-1,-1.4123676E-2,1.4383091E-1,5.1542368E-2,1.552135E-1,-2.9518489E-2,2.0451626E-1,6.4836904E-2,7.30731E-2,2.652597E-1,-1.4455746E-1,5.193042E-2,-3.441528E-2,-1.9322105E-1,-2.3292903E-2,6.92925E-2,1.2824471E-1,-1.2062033E-1,-4.608059E-2,7.6717556E-2,-2.3107207E-3,-2.4667372E-1,-1.01324126E-1,3.382231E-2,-1.7130328E-2,8.232399E-3,-2.0503182E-2,1.1468998E-1,4.2571172E-2,-3.0621108E-1,3.8245232E-3,8.1847936E-2,3.5604794E-4,-1.7368314E-1,-5.1403925E-2,-1.8168382E-2,-8.312856E-2,-3.134814E-2,1.230478E-2,-1.9550111E-2,1.3462255E-3,-1.7335655E-2,-3.7266277E-2,1.0749034E-2,-2.8322263E-2,1.2920612E-1],"split_indices":[0,1,0,4,3,4,1,4,1,4,1,3,4,1,2,0,0,0,0,0,4,0,0,0,1,4,0,3,4,0,0,2,1,1,3,1,0,3,3,4,1,4,0,4,1,1,1,1,0,1,0,1,1,0,0,1,4,3,1,1,1,0,0,0,0,0,0,0,0,0,0,0,0,0,0,0,0,0,0,0,0,0,0,0,0,0,0,0,0,0,0,0,0,0,0,0,0,0,0,0,0,0,0,0,0,0,0,0,0,0,0,0,0,0,0,0,0,0,0],"split_type":[0,0,0,0,0,0,0,0,0,0,0,0,0,0,0,0,0,0,0,0,0,0,0,0,0,0,0,0,0,0,0,0,0,0,0,0,0,0,0,0,0,0,0,0,0,0,0,0,0,0,0,0,0,0,0,0,0,0,0,0,0,0,0,0,0,0,0,0,0,0,0,0,0,0,0,0,0,0,0,0,0,0,0,0,0,0,0,0,0,0,0,0,0,0,0,0,0,0,0,0,0,0,0,0,0,0,0,0,0,0,0,0,0,0,0,0,0,0,0],"sum_hessian":[1.8504904E4,1.6365933E3,1.686831E4,6.8411914E2,9.524741E2,5.615425E3,1.1252886E4,4.940056E2,1.9011354E2,9.0569464E2,4.6779476E1,4.6962857E2,5.1457964E3,9.734879E2,1.0279398E4,3.2687247E2,1.6713316E2,3.1194723E1,1.5891882E2,2.4231247E2,6.6338214E2,1.5381209E1,3.1398268E1,4.3993896E2,2.9689589E1,3.9787249E3,1.1670715E3,1.2617835E2,8.473096E2,9.247197E3,1.0322006E3,2.2927066E2,9.760179E1,1.0239359E1,1.568938E2,8.701124E0,2.2493599E1,7.760524E1,8.131358E1,3.4627487E2,3.171073E2,3.8984318E0,1.1482778E1,6.6375403E0,2.4760727E1,2.90715E2,1.4922398E2,2.8516817E1,1.1727729E0,1.934808E3,2.0439167E3,3.5168875E2,8.153828E2,1.0220398E2,2.3974367E1,5.5389166E2,2.9341794E2,6.7001646E3,2.547033E3,2.1718974E2,8.1501086E2,2.2446945E2,4.80121E0,6.30372E0,9.129807E1,1.072895E0,9.166464E0,1.2952563E2,2.7368168E1,1.2593876E0,7.4417367E0,8.492423E0,1.4001176E1,7.518527E1,2.4199634E0,7.812865E1,3.1849356E0,2.5445264E2,9.182223E1,3.068736E2,1.0233704E1,1.0172651E0,2.8811667E0,3.8116813E0,7.671096E0,2.536011E0,4.101529E0,1.481237E1,9.948358E0,2.8763654E2,3.0784466E0,4.7318473E0,1.4449213E2,2.711123E1,1.4055848E0,8.346846E1,1.8513395E3,1.1786455E3,8.6527124E2,3.3615902E1,3.1807285E2,8.1169885E2,3.6839213E0,7.555374E1,2.6650244E1,1.4022417E1,9.951949E0,1.542504E2,3.9964127E2,1.6958398E2,1.2383394E2,6.0280996E3,6.720649E2,1.0527664E3,1.4942667E3,5.6145733E1,1.6104402E2,8.129929E2,2.0179462E0],"tree_param":{"num_deleted":"0","num_feature":"5","num_nodes":"119","size_leaf_vector":"1"}},{"base_weights":[4.6873663E-2,3.0417782E-1,1.3492828E-2,5.506804E-1,2.3715395E-1,2.4964029E-2,-7.515369E-2,5.745458E-1,-4.3712847E-2,5.2986044E-1,1.802921E-1,1.474657E-1,1.5675852E-2,-2.6209533E-1,-7.017462E-2,3.102685E-1,6.1487174E-1,8.8245615E-2,-2.8875768E-1,-2.5036237E-1,5.440359E-1,7.224294E-2,4.3781185E-1,2.185534E-1,7.765094E-2,-7.54242E-2,2.6675098E-2,-2.9801807E-1,6.0673494E-2,-6.483743E-2,-2.2386643E-1,1.7935233E-1,6.46247E-1,6.380807E-1,4.1711053E-1,4.129815E-1,-3.5611838E-1,3.2047E-2,-1.6018653E-1,5.665837E-1,2.5521751E-2,1.9471663E-1,-6.2497243E-2,-2.536142E-2,4.7124594E-1,-4.2807706E-2,2.3619391E-1,1.3778202E-1,2.654084E-2,-6.231297E-2,-1.6665271E-1,6.80715E-2,-8.135846E-3,8.2190195E-3,-3.343144E-1,-1.2195503E-1,9.1286995E-2,-9.197721E-2,-4.396774E-2,-2.7027896E-1,1.9071536E-1,8.1029825E-2,-1.850782E-1,3.5121668E-2,2.044637E-1,2.0738997E-1,1.7038889E-1,1.0238777E-1,1.6051875E-1,2.5473434E-2,2.617388E-1,3.1803765E-3,-1.565911E-1,1.734176E-1,3.7981566E-2,-9.722046E-2,2.621848E-2,6.5914415E-2,-4.1768044E-2,-8.180118E-2,-1.0143673E-3,1.3918649E-1,-6.225118E-2,1.4308767E-1,-1.6913947E-1,7.7823125E-2,-1.9853458E-2,7.244728E-2,-1.277529E-1,4.52262E-2,-3.8573444E-2,4.4355253E-3,1.7114756E-1,2.7613852E-2,-2.1047447E-2,-9.341175E-3,-6.005954E-2,2.312525E-2,-3.1561196E-2,-7.7356184E-3,1.0396222E-2,-1.04089975E-1,1.3207436E-1,-6.7817755E-2,-2.5184828E-1,1.03593536E-1,-1.2763996E-1,-3.0481253E-2,-5.270086E-4,-8.785624E-3,-3.996037E-2,-6.1077725E-2,-1.3449013E-1,-9.5205605E-2,1.2391749E-1],"categories":[],"categories_nodes":[],"categories_segments":[],"categories_sizes":[],"default_left":[0,0,0,0,0,0,0,0,0,0,0,0,0,0,0,0,0,0,0,0,0,0,0,0,0,0,0,0,0,0,0,0,0,0,0,0,0,0,0,0,0,0,0,0,0,0,0,0,0,0,0,0,0,0,0,0,0,0,0,0,0,0,0,0,0,0,0,0,0,0,0,0,0,0,0,0,0,0,0,0,0,0,0,0,0,0,0,0,0,0,0,0,0,0,0,0,0,0,0,0,0,0,0,0,0,0,0,0,0,0,0,0,0,0,0],"id":10,"left_children":[1,3,5,7,9,11,13,15,17,19,21,23,25,27,29,31,33,35,-1,37,39,41,43,45,47,49,51,53,55,57,59,61,63,65,67,69,71,-1,-1,73,75,77,79,81,83,85,87,89,91,93,95,97,99,101,103,105,-1,107,109,111,113,-1,-1,-1,-1,-1,-1,-1,-1,-1,-1,-1,-1,-1,-1,-1,-1,-1,-1,-1,-1,-1,-1,-1,-1,-1,-1,-1,-1,-1,-1,-1,-1,-1,-1,-1,-1,-1,-1,-1,-1,-1,-1,-1,-1,-1,-1,-1,-1,-1,-1,-1,-1,-1,-1],"loss_changes":[1.5601039E2,3.43311E1,1.6352863E1,6.3397217E0,2.722892E1,1.619786E1,1.6966877E0,4.3708954E0,2.2809849E0,3.0840378E0,3.8260437E1,4.962528E0,1.326451E1,5.6810665E-1,1.4588413E0,2.4653726E0,1.4337006E0,2.5646682E0,0E0,6.081754E-1,3.0497131E0,1.6029652E1,6.3077545E0,2.2996254E0,1.5568092E0,1.6954517E0,1.7019993E1,4.7910285E-1,2.8544608E-1,9.799509E-1,1.2036161E0,3.318203E0,2.2040462E-1,8.3717346E-1,1.9107676E-1,1.4548851E0,4.6843898E-1,0E0,0E0,1.1946564E0,2.8722015E-1,4.277218E0,5.75078E0,2.6203141E0,2.5113754E0,2.4490687E-1,1.7346897E0,8.2461643E-1,1.7545471E0,1.5184021E0,8.057251E-1,8.433392E0,4.846722E0,9.9936706E-1,1.9069004E0,7.005935E-1,0E0,6.54953E-1,1.285297E0,5.5287266E-1,8.7826955E-1,0E0,0E0,0E0,0E0,0E0,0E0,0E0,0E0,0E0,0E0,0E0,0E0,0E0,0E0,0E0,0E0,0E0,0E0,0E0,0E0,0E0,0E0,0E0,0E0,0E0,0E0,0E0,0E0,0E0,0E0,0E0,0E0,0E0,0E0,0E0,0E0,0E0,0E0,0E0,0E0,0E0,0E0,0E0,0E0,0E0,0E0,0E0,0E0,0E0,0E0,0E0,0E0,0E0,0E0],"parents":[2147483647,0,0,1,1,2,2,3,3,4,4,5,5,6,6,7,7,8,8,9,9,10,10,11,11,12,12,13,13,14,14,15,15,16,16,17,17,19,19,20,20,21,21,22,22,23,23,24,24,25,25,26,26,27,27,28,28,29,29,30,30,31,31,32,32,33,33,34,34,35,35,36,36,39,39,40,40,41,41,42,42,43,43,44,44,45,45,46,46,47,47,48,48,49,49,50,50,51,51,52,52,53,53,54,54,55,55,57,57,58,58,59,59,60,60],"right_children":[2,4,6,8,10,12,14,16,18,20,22,24,26,28,30,32,34,36,-1,38,40,42,44,46,48,50,52,54,56,58,60,62,64,66,68,70,72,-1,-1,74,76,78,80,82,84,86,88,90,92,94,96,98,100,102,104,106,-1,108,110,112,114,-1,-1,-1,-1,-1,-1,-1,-1,-1,-1,-1,-1,-1,-1,-1,-1,-1,-1,-1,-1,-1,-1,-1,-1,-1,-1,-1,-1,-1,-1,-1,-1,-1,-1,-1,-1,-1,-1,-1,-1,-1,-1,-1,-1,-1,-1,-1,-1,-1,-1,-1,-1,-1,-1],"split_conditions":[6E0,2E0,1E0,1E0,1E0,1E0,-2.2126057E0,-7.795733E-1,1E0,-2.2126057E0,4E0,1E1,-7.795733E-1,4E0,2.8030078E0,4E0,1.3699753E0,6.5345913E-1,-2.8875768E-1,-2.929122E0,1E0,2E0,-1.4960896E0,-7.795733E-1,6.5345913E-1,1E0,1E1,-3.6456382E0,1.2E1,1E1,5.6690726E0,3E0,-2.929122E0,2E0,1E0,-6.305709E-2,2E0,3.2047E-2,-1.6018653E-1,2.0864916E0,-1.4960896E0,1E0,4E0,-2.2126057E0,3.519524E0,-3.6456382E0,3.519524E0,1E0,3.519524E0,-2.929122E0,2E0,2.0864916E0,4E0,1.2E1,1.1E1,9E0,9.1286995E-2,1.3699753E0,1E0,1.2E1,2E0,8.1029825E-2,-1.850782E-1,3.5121668E-2,2.044637E-1,2.0738997E-1,1.7038889E-1,1.0238777E-1,1.6051875E-1,2.5473434E-2,2.617388E-1,3.1803765E-3,-1.565911E-1,1.734176E-1,3.7981566E-2,-9.722046E-2,2.621848E-2,6.5914415E-2,-4.1768044E-2,-8.180118E-2,-1.0143673E-3,1.3918649E-1,-6.225118E-2,1.4308767E-1,-1.6913947E-1,7.7823125E-2,-1.9853458E-2,7.244728E-2,-1.277529E-1,4.52262E-2,-3.8573444E-2,4.4355253E-3,1.7114756E-1,2.7613852E-2,-2.1047447E-2,-9.341175E-3,-6.005954E-2,2.312525E-2,-3.1561196E-2,-7.7356184E-3,1.0396222E-2,-1.04089975E-1,1.3207436E-1,-6.7817755E-2,-2.5184828E-1,1.03593536E-1,-1.2763996E-1,-3.0481253E-2,-5.270086E-4,-8.785624E-3,-3.996037E-2,-6.1077725E-2,-1.3449013E-1,-9.5205605E-2,1.2391749E-1],"split_indices":[0,0,3,3,4,4,1,1,2,1,4,0,1,4,1,4,1,1,0,1,3,4,1,1,1,2,0,1,0,0,1,4,1,4,0,1,4,0,0,1,1,3,0,1,1,1,1,2,1,1,4,1,4,0,0,0,0,1,2,0,4,0,0,0,0,0,0,0,0,0,0,0,0,0,0,0,0,0,0,0,0,0,0,0,0,0,0,0,0,0,0,0,0,0,0,0,0,0,0,0,0,0,0,0,0,0,0,0,0,0,0,0,0,0,0],"split_type":[0,0,0,0,0,0,0,0,0,0,0,0,0,0,0,0,0,0,0,0,0,0,0,0,0,0,0,0,0,0,0,0,0,0,0,0,0,0,0,0,0,0,0,0,0,0,0,0,0,0,0,0,0,0,0,0,0,0,0,0,0,0,0,0,0,0,0,0,0,0,0,0,0,0,0,0,0,0,0,0,0,0,0,0,0,0,0,0,0,0,0,0,0,0,0,0,0,0,0,0,0,0,0,0,0,0,0,0,0,0,0,0,0,0,0],"sum_hessian":[1.8163395E4,2.084863E3,1.6078531E4,4.441474E2,1.6407157E3,1.4236936E4,1.8415958E3,4.2703494E2,1.7112452E1,2.655307E2,1.375185E3,1.0023306E3,1.32346045E4,4.6437485E1,1.7951584E3,5.7685406E1,3.6934955E2,1.5753862E1,1.3585885E0,4.440892E0,2.610898E2,9.6963135E2,4.0555368E2,4.9558215E2,5.0674847E2,1.4251444E3,1.180946E4,4.1855804E1,4.581682E0,1.736285E3,5.8873333E1,4.2614296E1,1.5071109E1,3.2856326E2,4.0786285E1,9.142938E0,6.6109257E0,2.2412958E0,2.1995964E0,2.5012054E2,1.0969274E1,5.0770328E2,4.6192807E2,2.7320145E1,3.7823352E2,3.1244106E1,4.6433804E2,2.32048E2,2.7470047E2,1.2475337E3,1.7761076E2,5.394036E3,6.415424E3,4.5171947E0,3.7338608E1,2.904045E0,1.677637E0,7.532813E2,9.830038E2,5.325904E1,5.6142926E0,3.8847847E1,3.7664504E0,1.2123885E0,1.385872E1,1.8175372E2,1.4680952E2,2.7197542E1,1.3588742E1,6.025513E0,3.117424E0,2.3502674E0,4.2606583E0,2.4345717E2,6.663377E0,1.0122628E0,9.957011E0,4.726631E2,3.5040184E1,1.0061219E2,3.613159E2,6.9912653E0,2.0328878E1,3.7669354E2,1.5399842E0,1.5177125E0,2.9726395E1,4.6128253E2,3.0555243E0,2.2168571E2,1.0362282E1,2.6989474E2,4.8057275E0,5.981918E1,1.1877145E3,3.5624786E1,1.4198598E2,5.127873E3,2.6616327E2,4.5422715E3,1.8731525E3,2.587123E0,1.9300717E0,3.194136E1,5.3972483E0,1.0893025E0,1.8147426E0,6.805384E2,7.2742905E1,8.452551E2,1.3774866E2,4.0304634E1,1.2954408E1,1.5789609E0,4.0353317E0],"tree_param":{"num_deleted":"0","num_feature":"5","num_nodes":"115","size_leaf_vector":"1"}},{"base_weights":[3.4299877E-2,3.5202307E-1,1.75221E-2,4.7026703E-1,2.6482216E-1,1.1868774E-1,3.7906093E-3,4.9359947E-1,-3.44404E-2,1.9714321E-1,4.2158213E-1,1.7353505E-2,2.0473433E-1,1.133265E-2,-6.436422E-2,2.471075E-1,5.34854E-1,7.744229E-2,-2.3836052E-1,3.5443214E-1,-1.7688593E-1,4.4353825E-1,-1.7581508E-1,3.073702E-1,-4.3359674E-3,2.3993091E-1,-1.5204376E-1,8.652603E-2,5.8433604E-3,-1.3580656E-1,-4.493513E-2,1.3415417E-1,5.7363546E-1,5.5906665E-1,3.424971E-1,3.475581E-1,-2.5799558E-1,2.3515938E-1,4.3852103E-1,6.484647E-2,-3.4109595E-1,1.965488E-2,4.911648E-1,8.395087E-2,4.2844284E-1,1.396106E-2,-2.0199306E-1,3.3879492E-1,1.5208006E-1,1.9503108E-1,-1.880565E-1,2.3312849E-1,6.820278E-2,-8.64147E-3,4.5115426E-2,-1.4606707E-1,7.3092824E-1,-4.6182413E-2,1.2939535E-1,6.278713E-2,-1.213605E-1,2.9966587E-2,1.8314648E-1,1.8504155E-1,1.4572784E-1,1.5126564E-1,8.219799E-2,-6.740955E-2,1.8462078E-1,2.5147714E-3,-1.1180684E-1,7.498361E-2,-6.926447E-2,1.7863725E-1,8.580665E-2,7.908903E-2,-9.220553E-2,-1.1261379E-1,1.5538399E-1,1.424504E-1,-4.5283817E-2,1.6671729E-1,1.2912114E-1,5.4026738E-2,-8.834293E-4,1.3810562E-1,-2.5688993E-2,-3.0112844E-3,3.7119355E-2,-2.300708E-1,-2.6686497E-2,1.6120394E-1,9.150526E-2,5.345283E-2,-8.197719E-2,6.731526E-2,2.6746127E-3,-9.495624E-2,-3.631593E-2,-3.4987513E-2,7.983742E-2,3.0756054E-2,5.7657673E-3,3.935921E-3,-1.0567549E-2,2.5502048E-2,5.208179E-3,-8.307478E-2,-3.0887723E-2,7.150184E-2,2.79415E-1,-1.3220963E-2,-1.4842683E-1],"categories":[],"categories_nodes":[],"categories_segments":[],"categories_sizes":[],"default_left":[0,0,0,0,0,0,0,0,0,0,0,0,0,0,0,0,0,0,0,0,0,0,0,0,0,0,0,0,0,0,0,0,0,0,0,0,0,0,0,0,0,0,0,0,0,0,0,0,0,0,0,0,0,0,0,0,0,0,0,0,0,0,0,0,0,0,0,0,0,0,0,0,0,0,0,0,0,0,0,0,0,0,0,0,0,0,0,0,0,0,0,0,0,0,0,0,0,0,0,0,0,0,0,0,0,0,0,0,0,0,0,0,0],"id":11,"left_children":[1,3,5,7,9,11,13,15,17,19,21,23,25,27,29,31,33,35,-1,37,39,41,-1,43,45,47,49,51,53,55,57,59,61,63,65,67,69,71,73,75,77,79,81,83,85,87,89,91,93,95,97,99,101,103,105,107,109,111,-1,-1,-1,-1,-1,-1,-1,-1,-1,-1,-1,-1,-1,-1,-1,-1,-1,-1,-1,-1,-1,-1,-1,-1,-1,-1,-1,-1,-1,-1,-1,-1,-1,-1,-1,-1,-1,-1,-1,-1,-1,-1,-1,-1,-1,-1,-1,-1,-1,-1,-1,-1,-1,-1,-1],"loss_changes":[9.540365E1,9.131424E0,2.3617321E1,4.4887314E0,5.4226E0,1.7713005E1,7.696063E0,3.5593262E0,1.5679443E0,2.1497047E1,3.702591E0,5.8772864E0,1.3833424E1,5.5634522E0,2.0645375E0,1.9111869E0,1.2528381E0,1.5712944E0,0E0,2.4726105E0,4.3299894E0,3.0763054E0,0E0,1.7226429E0,3.149622E0,8.637623E0,1.2774494E0,2.4474912E0,7.1473565E0,2.938828E0,7.1747756E-1,1.758543E0,1.7557144E-1,8.5954285E-1,2.745471E-1,1.5919669E0,2.4350953E-1,8.043208E-1,3.4068356E0,3.391212E0,2.1023831E0,1.3515592E0,2.997055E-1,2.0180173E-1,7.2707033E-1,2.1016738E0,4.643505E0,2.9875221E0,5.948596E0,5.1662296E-2,7.402024E-1,1.2020555E0,1.3706789E0,5.310676E0,3.7468915E0,1.7514596E0,1.6235304E-1,1.0889423E0,0E0,0E0,0E0,0E0,0E0,0E0,0E0,0E0,0E0,0E0,0E0,0E0,0E0,0E0,0E0,0E0,0E0,0E0,0E0,0E0,0E0,0E0,0E0,0E0,0E0,0E0,0E0,0E0,0E0,0E0,0E0,0E0,0E0,0E0,0E0,0E0,0E0,0E0,0E0,0E0,0E0,0E0,0E0,0E0,0E0,0E0,0E0,0E0,0E0,0E0,0E0,0E0,0E0,0E0,0E0],"parents":[2147483647,0,0,1,1,2,2,3,3,4,4,5,5,6,6,7,7,8,8,9,9,10,10,11,11,12,12,13,13,14,14,15,15,16,16,17,17,19,19,20,20,21,21,23,23,24,24,25,25,26,26,27,27,28,28,29,29,30,30,31,31,32,32,33,33,34,34,35,35,36,36,37,37,38,38,39,39,40,40,41,41,42,42,43,43,44,44,45,45,46,46,47,47,48,48,49,49,50,50,51,51,52,52,53,53,54,54,55,55,56,56,57,57],"right_children":[2,4,6,8,10,12,14,16,18,20,22,24,26,28,30,32,34,36,-1,38,40,42,-1,44,46,48,50,52,54,56,58,60,62,64,66,68,70,72,74,76,78,80,82,84,86,88,90,92,94,96,98,100,102,104,106,108,110,112,-1,-1,-1,-1,-1,-1,-1,-1,-1,-1,-1,-1,-1,-1,-1,-1,-1,-1,-1,-1,-1,-1,-1,-1,-1,-1,-1,-1,-1,-1,-1,-1,-1,-1,-1,-1,-1,-1,-1,-1,-1,-1,-1,-1,-1,-1,-1,-1,-1,-1,-1,-1,-1,-1,-1],"split_conditions":[4E0,2E0,7E0,1E0,4E0,-6.305709E-2,1E0,-7.795733E-1,1E0,2E0,2.0864916E0,1E0,1E0,1E0,9E0,4E0,1.3699753E0,6.5345913E-1,-2.3836052E-1,-6.305709E-2,-7.795733E-1,-1.4960896E0,-1.7581508E-1,-7.795733E-1,1E0,6.5345913E-1,1E0,8E0,4E0,4.9525566E0,6.385589E0,3E0,-2.929122E0,2E0,1E0,2E0,2E0,1E0,6.5345913E-1,3E0,2.8030078E0,-2.2126057E0,3E0,-1.4960896E0,1E0,4E0,2E0,1E0,1E0,1.3699753E0,2E0,-7.795733E-1,1.1E1,2E0,1E1,2E0,5.6690726E0,4.23604E0,1.2939535E-1,6.278713E-2,-1.213605E-1,2.9966587E-2,1.8314648E-1,1.8504155E-1,1.4572784E-1,1.5126564E-1,8.219799E-2,-6.740955E-2,1.8462078E-1,2.5147714E-3,-1.1180684E-1,7.498361E-2,-6.926447E-2,1.7863725E-1,8.580665E-2,7.908903E-2,-9.220553E-2,-1.1261379E-1,1.5538399E-1,1.424504E-1,-4.5283817E-2,1.6671729E-1,1.2912114E-1,5.4026738E-2,-8.834293E-4,1.3810562E-1,-2.5688993E-2,-3.0112844E-3,3.7119355E-2,-2.300708E-1,-2.6686497E-2,1.6120394E-1,9.150526E-2,5.345283E-2,-8.197719E-2,6.731526E-2,2.6746127E-3,-9.495624E-2,-3.631593E-2,-3.4987513E-2,7.983742E-2,3.0756054E-2,5.7657673E-3,3.935921E-3,-1.0567549E-2,2.5502048E-2,5.208179E-3,-8.307478E-2,-3.0887723E-2,7.150184E-2,2.79415E-1,-1.3220963E-2,-1.4842683E-1],"split_indices":[0,0,0,3,4,1,2,1,2,4,1,4,3,4,0,4,1,1,0,1,1,1,0,1,2,1,4,0,4,1,1,4,1,4,4,4,4,2,1,4,1,1,0,1,3,4,4,4,2,1,4,1,0,4,0,4,1,1,0,0,0,0,0,0,0,0,0,0,0,0,0,0,0,0,0,0,0,0,0,0,0,0,0,0,0,0,0,0,0,0,0,0,0,0,0,0,0,0,0,0,0,0,0,0,0,0,0,0,0,0,0,0,0],"split_type":[0,0,0,0,0,0,0,0,0,0,0,0,0,0,0,0,0,0,0,0,0,0,0,0,0,0,0,0,0,0,0,0,0,0,0,0,0,0,0,0,0,0,0,0,0,0,0,0,0,0,0,0,0,0,0,0,0,0,0,0,0,0,0,0,0,0,0,0,0,0,0,0,0,0,0,0,0,0,0,0,0,0,0,0,0,0,0,0,0,0,0,0,0,0,0,0,0,0,0,0,0,0,0,0,0,0,0,0,0,0,0,0,0],"sum_hessian":[1.7897217E4,8.9667975E2,1.7000537E4,3.7873047E2,5.179493E2,2.0308406E3,1.4969696E4,3.6201657E2,1.6713879E1,3.6333997E2,1.5460934E2,9.3312805E2,1.0977126E3,1.3478945E4,1.4907517E3,5.2904877E1,3.091117E2,1.5352213E1,1.3616654E0,2.5581538E2,1.0752458E2,1.5186015E2,2.7491846E0,6.401341E1,8.691146E2,9.994438E2,9.826882E1,9.160429E2,1.2562902E4,3.1745474E2,1.173297E3,4.0355766E1,1.2549111E1,2.7285956E2,3.625216E1,8.484125E0,6.868088E0,1.07348076E2,1.484673E2,4.3740135E1,6.3784447E1,1.5481871E1,1.3637828E2,2.3092838E1,4.092057E1,7.9632825E2,7.278638E1,4.6890237E2,5.305414E2,8.822818E0,8.944601E1,1.0046995E2,8.1557294E2,9.17839E3,3.3845122E3,3.1456238E2,2.8923528E0,1.1711328E3,2.1641076E0,3.595259E1,4.4031763E0,1.1735427E0,1.1375568E1,1.4849074E2,1.24368805E2,8.894309E0,2.7357851E1,2.7563019E0,5.7278233E0,2.3461156E0,4.521972E0,1.0449642E2,2.8516538E0,7.1737564E1,7.6729744E1,2.8702435E1,1.5037702E1,6.1878E1,1.90645E0,3.7345157E0,1.17473545E1,6.217274E1,7.420554E1,1.0454203E1,1.2638635E1,3.8627415E1,2.2931554E0,6.542092E2,1.4211902E2,1.1171612E1,6.1614765E1,6.600441E1,4.0289798E2,5.0041986E2,3.0121532E1,7.4432883E0,1.3795292E0,2.9384243E1,6.0061764E1,8.442855E0,9.202709E1,4.7893967E2,3.3663327E2,5.0472534E3,4.1311367E3,1.3877982E3,1.996714E3,7.660719E1,2.379552E2,1.4697216E0,1.4226314E0,1.1667365E3,4.3964458E0],"tree_param":{"num_deleted":"0","num_feature":"5","num_nodes":"113","size_leaf_vector":"1"}},{"base_weights":[2.506801E-2,2.3425686E-1,9.6488595E-3,4.5825738E-1,1.8136868E-1,5.5157177E-2,-8.737628E-4,4.8552823E-1,-1.9238074E-1,7.219426E-2,3.866533E-1,-4.1553117E-3,1.01195924E-1,4.6759727E-3,-4.2663194E-2,3.231075E-1,5.7424337E-1,-2.9440245E-1,3.7871014E-2,1.9079983E-1,-7.23105E-2,4.1100395E-1,-1.3459091E-1,2.4345388E-1,-1.701633E-2,1.2455924E-1,-1.0603787E-1,-4.3966576E-2,9.696421E-3,-3.8473006E-2,-1.8599759E-1,1.6908872E-1,2.616376E-1,1.9251147E-1,5.148403E-1,-5.92289E-2,-3.8588855E-1,2.5979462E-1,6.351893E-2,-2.6362743E-2,-2.0620342E-1,5.3628916E-1,3.4596324E-1,4.428361E-2,-4.1027108E-1,-7.431864E-3,3.8053513E-1,-8.373081E-4,-1.6781329E-1,1.3319957E-1,-2.2104904E-1,-1.5044317E-1,7.681133E-2,3.7027318E-2,-5.517289E-2,2.5238995E-2,-1.2175133E-2,-1.479851E-1,-3.587609E-2,-9.2047475E-2,-3.901418E-1,3.0192517E-2,1.1433985E-1,1.6782215E-1,1.3223737E-1,-7.622488E-2,4.9174897E-2,-7.2687007E-3,-1.7687336E-1,9.544908E-4,9.53505E-2,-1.22036465E-1,2.5898535E-2,4.1314416E-2,-1.8790286E-2,-9.5592074E-2,7.406651E-2,2.5558634E-2,1.620729E-1,1.3743742E-2,1.13276444E-1,-5.59827E-2,2.1421547E-1,-2.507724E-2,-2.606194E-1,1.6407661E-1,-1.713009E-2,1.19230926E-1,-4.295005E-2,-5.294704E-2,3.2159542E-3,-7.49047E-2,5.4848343E-2,3.2751545E-2,6.161626E-2,9.008455E-2,-1.3851354E-1,-5.904833E-2,-1.26861995E-2,1.19850606E-1,-2.1818612E-2,-1.0281603E-2,4.2734094E-2,-3.749835E-2,-7.118968E-3,7.2936034E-3,1.3262728E-1,3.9323308E-3,-9.613197E-3,-1.9679697E-2,-9.882762E-2,-1.1939984E-2,5.484315E-3,-6.453083E-2,6.8329275E-2,-1.6656402E-1,6.18754E-2],"categories":[],"categories_nodes":[],"categories_segments":[],"categories_sizes":[],"default_left":[0,0,0,0,0,0,0,0,0,0,0,0,0,0,0,0,0,0,0,0,0,0,0,0,0,0,0,0,0,0,0,0,0,0,0,0,0,0,0,0,0,0,0,0,0,0,0,0,0,0,0,0,0,0,0,0,0,0,0,0,0,0,0,0,0,0,0,0,0,0,0,0,0,0,0,0,0,0,0,0,0,0,0,0,0,0,0,0,0,0,0,0,0,0,0,0,0,0,0,0,0,0,0,0,0,0,0,0,0,0,0,0,0,0,0,0,0],"id":12,"left_children":[1,3,5,7,9,11,13,15,17,19,21,23,25,27,29,31,33,35,-1,37,39,41,43,45,47,49,51,53,55,57,59,-1,61,-1,63,65,67,69,71,73,75,77,79,81,83,85,87,89,91,93,95,97,99,101,103,105,107,109,111,113,115,-1,-1,-1,-1,-1,-1,-1,-1,-1,-1,-1,-1,-1,-1,-1,-1,-1,-1,-1,-1,-1,-1,-1,-1,-1,-1,-1,-1,-1,-1,-1,-1,-1,-1,-1,-1,-1,-1,-1,-1,-1,-1,-1,-1,-1,-1,-1,-1,-1,-1,-1,-1,-1,-1,-1,-1],"loss_changes":[5.7094727E1,1.4312889E1,7.8953686E0,4.200157E0,2.2041245E1,8.455601E0,3.106107E0,3.0194092E0,3.631019E-1,1.1052496E1,4.3916664E0,4.316229E0,8.453636E0,2.8876972E0,9.3584657E-1,1.0480251E0,2.4094391E-1,1.4700991E-1,0E0,3.0922918E0,1.785183E0,2.4761543E0,8.072283E-1,2.304486E0,3.1426406E0,4.7091484E0,1.4500364E0,1.0061553E0,3.6436992E0,4.2889404E-1,8.1441367E-1,0E0,1.2365003E0,0E0,2.0296097E-2,1.8915606E-1,3.910777E-1,3.4133139E0,1.3842503E0,1.3050815E0,3.8595703E0,1.4981842E-1,2.0504494E0,1.7735825E0,8.8504076E-1,7.0932066E-1,4.4013405E-1,2.365573E0,3.6285307E0,2.6305637E0,4.9814773E0,7.0849514E-1,1.7314848E0,1.02004E0,2.1314588E0,2.4104147E0,2.2373698E0,5.022686E-1,3.179382E-1,1.2953916E0,1.4597375E0,0E0,0E0,0E0,0E0,0E0,0E0,0E0,0E0,0E0,0E0,0E0,0E0,0E0,0E0,0E0,0E0,0E0,0E0,0E0,0E0,0E0,0E0,0E0,0E0,0E0,0E0,0E0,0E0,0E0,0E0,0E0,0E0,0E0,0E0,0E0,0E0,0E0,0E0,0E0,0E0,0E0,0E0,0E0,0E0,0E0,0E0,0E0,0E0,0E0,0E0,0E0,0E0,0E0,0E0,0E0,0E0],"parents":[2147483647,0,0,1,1,2,2,3,3,4,4,5,5,6,6,7,7,8,8,9,9,10,10,11,11,12,12,13,13,14,14,15,15,16,16,17,17,19,19,20,20,21,21,22,22,23,23,24,24,25,25,26,26,27,27,28,28,29,29,30,30,32,32,34,34,35,35,36,36,37,37,38,38,39,39,40,40,41,41,42,42,43,43,44,44,45,45,46,46,47,47,48,48,49,49,50,50,51,51,52,52,53,53,54,54,55,55,56,56,57,57,58,58,59,59,60,60],"right_children":[2,4,6,8,10,12,14,16,18,20,22,24,26,28,30,32,34,36,-1,38,40,42,44,46,48,50,52,54,56,58,60,-1,62,-1,64,66,68,70,72,74,76,78,80,82,84,86,88,90,92,94,96,98,100,102,104,106,108,110,112,114,116,-1,-1,-1,-1,-1,-1,-1,-1,-1,-1,-1,-1,-1,-1,-1,-1,-1,-1,-1,-1,-1,-1,-1,-1,-1,-1,-1,-1,-1,-1,-1,-1,-1,-1,-1,-1,-1,-1,-1,-1,-1,-1,-1,-1,-1,-1,-1,-1,-1,-1,-1,-1,-1,-1,-1,-1],"split_conditions":[5E0,1E0,8E0,1E0,4E0,-6.305709E-2,1E0,-6.305709E-2,4E0,2E0,1E0,1E0,1E0,-7.795733E-1,3.519524E0,1E0,6.5345913E-1,-6.305709E-2,3.7871014E-2,4E0,3E0,2E0,4E0,-7.795733E-1,1E0,3.519524E0,1.3699753E0,-2.2126057E0,1.1E1,-2.2126057E0,1.2E1,1.6908872E-1,3E0,1.9251147E-1,3E0,-7.795733E-1,2E0,-7.795733E-1,-2.2126057E0,-1.4960896E0,1E0,-2.929122E0,-1.4960896E0,3E0,6.5345913E-1,-2.929122E0,1E0,-2.2126057E0,1E0,4E0,2E0,3E0,2.0864916E0,3E0,-1.4960896E0,5.6690726E0,6.5345913E-1,1.1E1,2.0864916E0,1.1E1,1E0,3.0192517E-2,1.1433985E-1,1.6782215E-1,1.3223737E-1,-7.622488E-2,4.9174897E-2,-7.2687007E-3,-1.7687336E-1,9.544908E-4,9.53505E-2,-1.22036465E-1,2.5898535E-2,4.1314416E-2,-1.8790286E-2,-9.5592074E-2,7.406651E-2,2.5558634E-2,1.620729E-1,1.3743742E-2,1.13276444E-1,-5.59827E-2,2.1421547E-1,-2.507724E-2,-2.606194E-1,1.6407661E-1,-1.713009E-2,1.19230926E-1,-4.295005E-2,-5.294704E-2,3.2159542E-3,-7.49047E-2,5.4848343E-2,3.2751545E-2,6.161626E-2,9.008455E-2,-1.3851354E-1,-5.904833E-2,-1.26861995E-2,1.19850606E-1,-2.1818612E-2,-1.0281603E-2,4.2734094E-2,-3.749835E-2,-7.118968E-3,7.2936034E-3,1.3262728E-1,3.9323308E-3,-9.613197E-3,-1.9679697E-2,-9.882762E-2,-1.1939984E-2,5.484315E-3,-6.453083E-2,6.8329275E-2,-1.6656402E-1,6.18754E-2],"split_indices":[0,4,0,3,4,1,3,1,0,4,3,4,3,1,1,0,1,1,0,0,4,0,0,1,2,1,1,1,0,1,0,0,0,0,0,1,0,1,1,1,3,1,1,0,1,1,2,1,3,4,4,4,1,4,1,1,1,0,1,0,2,0,0,0,0,0,0,0,0,0,0,0,0,0,0,0,0,0,0,0,0,0,0,0,0,0,0,0,0,0,0,0,0,0,0,0,0,0,0,0,0,0,0,0,0,0,0,0,0,0,0,0,0,0,0,0,0],"split_type":[0,0,0,0,0,0,0,0,0,0,0,0,0,0,0,0,0,0,0,0,0,0,0,0,0,0,0,0,0,0,0,0,0,0,0,0,0,0,0,0,0,0,0,0,0,0,0,0,0,0,0,0,0,0,0,0,0,0,0,0,0,0,0,0,0,0,0,0,0,0,0,0,0,0,0,0,0,0,0,0,0,0,0,0,0,0,0,0,0,0,0,0,0,0,0,0,0,0,0,0,0,0,0,0,0,0,0,0,0,0,0,0,0,0,0,0,0],"sum_hessian":[1.7700668E4,1.2141617E3,1.6486506E4,2.3045157E2,9.8371014E2,3.0953728E3,1.3391134E4,2.2142455E2,9.027025E0,6.430664E2,3.406437E2,1.353083E3,1.7422897E3,1.1822028E4,1.5691053E3,7.985929E1,1.4156526E2,6.8951797E0,2.1318455E0,3.530073E2,2.9005914E2,3.256424E2,1.5001329E1,6.592475E1,1.2871582E3,1.5661254E3,1.761643E2,1.1052856E3,1.0716743E4,1.5257699E3,4.3335415E1,1.4592415E1,6.526688E1,6.1696545E1,7.986871E1,2.392484E0,4.5026956E0,2.282431E2,1.247642E2,2.1684259E2,7.321654E1,1.0880684E2,2.1683556E2,9.607129E0,5.3942003E0,2.3627516E1,4.2297234E1,1.163348E3,1.2381019E2,1.5285262E3,3.759911E1,1.4188458E2,3.4279728E1,1.3405995E2,9.7122565E2,6.2647046E3,4.452038E3,3.4046356E1,1.4917236E3,3.067105E1,1.2664368E1,2.8589916E1,3.667696E1,4.5768284E1,3.4100426E1,1.2031927E0,1.1892912E0,2.025421E0,2.477275E0,4.2295864E1,1.8594725E2,4.992394E0,1.197718E2,3.875124E1,1.7809135E2,5.8897575E1,1.4318963E1,1.141308E0,1.0766553E2,2.090218E1,1.9593336E2,7.6807027E0,1.9264263E0,3.8401754E0,1.5540248E0,1.1196408E0,2.2507874E1,4.1208427E1,1.0888069E0,7.093672E1,1.0924114E3,1.0060782E2,2.3202375E1,1.1486956E3,3.7983075E2,1.1796799E1,2.5802313E1,9.87248E1,4.3159775E1,1.0325948E1,2.395378E1,8.037452E1,5.368544E1,3.0064496E2,6.705807E2,6.2518604E3,1.2844396E1,1.959252E3,2.4927861E3,2.4350937E1,9.695419E0,1.3911925E3,1.0053108E2,2.2385208E1,8.285841E0,9.973043E0,2.6913235E0],"tree_param":{"num_deleted":"0","num_feature":"5","num_nodes":"117","size_leaf_vector":"1"}},{"base_weights":[1.8221512E-2,1.8120886E-1,6.929993E-3,3.8052216E-1,1.377623E-1,6.0910825E-2,1.3567101E-3,4.0647757E-1,-1.449213E-1,5.3323768E-2,3.1198132E-1,7.7839918E-3,1.072021E-1,6.177896E-3,-4.1635513E-2,2.5724277E-1,4.945022E-1,-1.3463907E-1,-5.262608E-2,1.434843E-1,-4.866302E-2,3.3378738E-1,-9.519597E-2,1.6201754E-1,-8.487512E-4,2.095246E-1,2.6358336E-2,-1.7198283E-2,1.5724111E-2,-4.3514356E-2,3.748367E-1,1.4611886E-1,2.0317738E-1,5.149899E-1,3.0443996E-1,-7.087757E-2,6.3651823E-3,3.745053E-1,1.0696944E-1,-2.6256511E-2,-2.4086042E-1,4.548703E-1,2.7437398E-1,5.030662E-2,-3.06932E-1,-4.228736E-2,1.8145691E-1,8.4500415E-3,-9.12892E-2,1.5977767E-1,3.5107985E-1,1.0633094E-1,-1.7327274E-1,9.403253E-3,-3.06236E-2,5.5457973E-3,4.2698834E-2,-9.139392E-2,-3.0285083E-2,7.0315874E-1,-7.176374E-2,2.218953E-2,9.209573E-2,1.6953541E-1,1.3792574E-1,1.4330733E-1,-9.819746E-3,6.933203E-2,-2.3304122E-2,-6.275043E-2,1.5115461E-1,3.8345505E-2,-6.456184E-2,-1.5843084E-1,-4.718535E-3,1.2935373E-1,-9.29673E-2,1.1761551E-1,1.575335E-1,8.706778E-2,-1.1975986E-1,-3.9820515E-2,1.973778E-1,-1.8799998E-2,-1.8520886E-1,2.9455837E-2,6.641519E-2,1.5726395E-2,-5.8155875E-3,-1.83512E-1,5.953938E-3,1.12232275E-1,3.5476126E-2,1.1092838E-1,-1.3735377E-2,4.02384E-2,-2.6296144E-2,-1.5203185E-1,5.385843E-3,-6.082174E-2,6.5291454E-3,-1.8407548E-2,-5.5398606E-3,6.7537557E-3,-7.0789843E-3,3.026183E-2,3.0077374E-4,-2.1926578E-2,-1.02651976E-1,-8.627959E-3,-1.90071E-1,2.601182E-1,8.025603E-2,7.530451E-2,-8.475981E-2],"categories":[],"categories_nodes":[],"categories_segments":[],"categories_sizes":[],"default_left":[0,0,0,0,0,0,0,0,0,0,0,0,0,0,0,0,0,0,0,0,0,0,0,0,0,0,0,0,0,0,0,0,0,0,0,0,0,0,0,0,0,0,0,0,0,0,0,0,0,0,0,0,0,0,0,0,0,0,0,0,0,0,0,0,0,0,0,0,0,0,0,0,0,0,0,0,0,0,0,0,0,0,0,0,0,0,0,0,0,0,0,0,0,0,0,0,0,0,0,0,0,0,0,0,0,0,0,0,0,0,0,0,0,0,0],"id":13,"left_children":[1,3,5,7,9,11,13,15,17,19,21,23,25,27,29,31,33,-1,35,37,39,41,43,45,47,49,51,53,55,57,59,-1,61,63,65,-1,67,69,71,73,75,77,79,81,83,-1,85,87,89,91,93,95,97,99,101,103,105,107,109,111,113,-1,-1,-1,-1,-1,-1,-1,-1,-1,-1,-1,-1,-1,-1,-1,-1,-1,-1,-1,-1,-1,-1,-1,-1,-1,-1,-1,-1,-1,-1,-1,-1,-1,-1,-1,-1,-1,-1,-1,-1,-1,-1,-1,-1,-1,-1,-1,-1,-1,-1,-1,-1,-1,-1],"loss_changes":[3.2321476E1,9.800976E0,4.941763E0,2.828493E0,1.3749685E1,3.7796226E0,3.0865695E0,2.4183617E0,2.651572E-1,5.8138604E0,2.7423706E0,9.545726E-1,6.7889566E0,2.9881926E0,1.1912453E0,8.2023907E-1,3.136139E-1,0E0,9.932866E-2,2.7896428E0,1.272996E0,1.9613495E0,5.1749825E-1,2.4939084E-1,5.725023E-1,2.495779E0,7.362123E0,1.3870089E0,2.6101408E0,9.4462276E-1,1.0545067E0,0E0,8.036177E-1,3.8131714E-2,8.451786E-1,0E0,1.6544555E-1,3.5315843E0,1.9825621E0,1.4033039E0,1.5668416E0,2.0860863E-1,2.2198906E0,1.257139E0,4.7529012E-1,0E0,9.844351E-2,7.566457E-1,3.6828356E0,2.358554E0,7.093954E-1,1.7860103E0,8.423808E0,3.4214644E0,9.631951E-1,3.4142587E0,6.3175054E0,1.4591453E0,1.0614681E0,5.64332E-2,3.3002436E-1,0E0,0E0,0E0,0E0,0E0,0E0,0E0,0E0,0E0,0E0,0E0,0E0,0E0,0E0,0E0,0E0,0E0,0E0,0E0,0E0,0E0,0E0,0E0,0E0,0E0,0E0,0E0,0E0,0E0,0E0,0E0,0E0,0E0,0E0,0E0,0E0,0E0,0E0,0E0,0E0,0E0,0E0,0E0,0E0,0E0,0E0,0E0,0E0,0E0,0E0,0E0,0E0,0E0,0E0],"parents":[2147483647,0,0,1,1,2,2,3,3,4,4,5,5,6,6,7,7,8,8,9,9,10,10,11,11,12,12,13,13,14,14,15,15,16,16,18,18,19,19,20,20,21,21,22,22,23,23,24,24,25,25,26,26,27,27,28,28,29,29,30,30,32,32,33,33,34,34,36,36,37,37,38,38,39,39,40,40,41,41,42,42,43,43,44,44,46,46,47,47,48,48,49,49,50,50,51,51,52,52,53,53,54,54,55,55,56,56,57,57,58,58,59,59,60,60],"right_children":[2,4,6,8,10,12,14,16,18,20,22,24,26,28,30,32,34,-1,36,38,40,42,44,46,48,50,52,54,56,58,60,-1,62,64,66,-1,68,70,72,74,76,78,80,82,84,-1,86,88,90,92,94,96,98,100,102,104,106,108,110,112,114,-1,-1,-1,-1,-1,-1,-1,-1,-1,-1,-1,-1,-1,-1,-1,-1,-1,-1,-1,-1,-1,-1,-1,-1,-1,-1,-1,-1,-1,-1,-1,-1,-1,-1,-1,-1,-1,-1,-1,-1,-1,-1,-1,-1,-1,-1,-1,-1,-1,-1,-1,-1,-1,-1],"split_conditions":[5E0,1E0,7E0,1E0,4E0,-6.305709E-2,1E0,-6.305709E-2,1E0,2E0,1E0,1E0,6.5345913E-1,-6.305709E-2,5.6690726E0,1E0,1.3699753E0,-1.3463907E-1,-7.795733E-1,1E0,1E0,2E0,4E0,-2.2126057E0,1E0,4E0,3E0,9E0,4E0,9E0,1.1E1,1.4611886E-1,3E0,6.5345913E-1,3E0,-7.087757E-2,-6.305709E-2,-7.795733E-1,1.3699753E0,-2.929122E0,-2.2126057E0,1E0,2.0864916E0,3E0,6.5345913E-1,-4.228736E-2,-7.795733E-1,6E0,2E0,1E0,1E0,1E0,4E0,-2.2126057E0,1E1,2E0,6.5345913E-1,4E0,4.23604E0,1E1,3E0,2.218953E-2,9.209573E-2,1.6953541E-1,1.3792574E-1,1.4330733E-1,-9.819746E-3,6.933203E-2,-2.3304122E-2,-6.275043E-2,1.5115461E-1,3.8345505E-2,-6.456184E-2,-1.5843084E-1,-4.718535E-3,1.2935373E-1,-9.29673E-2,1.1761551E-1,1.575335E-1,8.706778E-2,-1.1975986E-1,-3.9820515E-2,1.973778E-1,-1.8799998E-2,-1.8520886E-1,2.9455837E-2,6.641519E-2,1.5726395E-2,-5.8155875E-3,-1.83512E-1,5.953938E-3,1.12232275E-1,3.5476126E-2,1.1092838E-1,-1.3735377E-2,4.02384E-2,-2.6296144E-2,-1.5203185E-1,5.385843E-3,-6.082174E-2,6.5291454E-3,-1.8407548E-2,-5.5398606E-3,6.7537557E-3,-7.0789843E-3,3.026183E-2,3.0077374E-4,-2.1926578E-2,-1.02651976E-1,-8.627959E-3,-1.90071E-1,2.601182E-1,8.025603E-2,7.530451E-2,-8.475981E-2],"split_indices":[0,4,0,3,4,1,2,1,0,4,3,4,1,1,1,0,1,0,1,0,2,0,0,1,2,4,4,0,4,0,0,0,0,1,0,0,1,1,1,1,1,0,1,0,1,0,1,0,4,4,3,3,4,1,0,4,1,4,1,0,4,0,0,0,0,0,0,0,0,0,0,0,0,0,0,0,0,0,0,0,0,0,0,0,0,0,0,0,0,0,0,0,0,0,0,0,0,0,0,0,0,0,0,0,0,0,0,0,0,0,0,0,0,0,0],"split_type":[0,0,0,0,0,0,0,0,0,0,0,0,0,0,0,0,0,0,0,0,0,0,0,0,0,0,0,0,0,0,0,0,0,0,0,0,0,0,0,0,0,0,0,0,0,0,0,0,0,0,0,0,0,0,0,0,0,0,0,0,0,0,0,0,0,0,0,0,0,0,0,0,0,0,0,0,0,0,0,0,0,0,0,0,0,0,0,0,0,0,0,0,0,0,0,0,0,0,0,0,0,0,0,0,0,0,0,0,0,0,0,0,0,0,0],"sum_hessian":[1.7562125E4,1.1368741E3,1.642525E4,2.0207709E2,9.34797E2,1.5362035E3,1.4889048E4,1.9278069E2,9.296403E0,6.3051306E2,3.0428394E2,7.1583435E2,8.203692E2,1.3388505E4,1.5005425E3,7.297799E1,1.1980269E2,1.2658981E0,8.030504E0,3.3444397E2,2.9606912E2,2.8898767E2,1.5296263E1,3.7001083E1,6.7883325E2,3.6138232E2,4.5898685E2,3.8819138E3,9.506591E3,1.494695E3,5.847534E0,1.2373249E1,6.060474E1,1.0660196E2,1.3200728E1,1.2219017E0,6.808603E0,4.438351E1,2.9006046E2,2.6617487E2,2.9894245E1,9.293423E1,1.9605347E2,9.518006E0,5.7782564E0,1.8540063E0,3.5147076E1,6.1636694E2,6.246628E1,2.6898227E2,9.240004E1,3.2804053E2,1.3094632E2,1.3021245E3,2.5797893E3,6.903074E3,2.6035166E3,3.2230298E2,1.172392E3,3.038953E0,2.808581E0,2.7761717E1,3.284302E1,5.1046486E1,5.5555477E1,8.444757E0,4.755971E0,1.376909E0,5.4316936E0,7.9393477E0,3.6444164E1,2.7299728E2,1.7063168E1,4.4591036E0,2.6171576E2,2.2959614E0,2.7598284E1,5.253359E1,4.0400635E1,1.9210164E2,3.9518197E0,7.915161E0,1.6028455E0,3.906366E0,1.8718903E0,1.2511847E1,2.263523E1,2.3858798E2,3.77779E2,1.0199712E1,5.2266567E1,4.2354713E1,2.2662756E2,8.8311295E1,4.0887423E0,2.8719543E2,4.0845108E1,4.7119358E1,8.382696E1,7.084368E1,1.2312809E3,7.3006903E2,1.8497203E3,4.3631025E3,2.539972E3,1.0863875E3,1.5171293E3,3.015809E2,2.072208E1,1.1704805E3,1.9115324E0,1.4885794E0,1.5503738E0,1.0340512E0,1.7745299E0],"tree_param":{"num_deleted":"0","num_feature":"5","num_nodes":"115","size_leaf_vector":"1"}},{"base_weights":[1.322643E-2,2.1565425E-1,7.654984E-3,2.2975087E-1,-3.50072E-1,8.106066E-2,2.39927E-3,2.554572E-1,-2.6722446E-2,-6.126294E-1,